<?xml version="1.0"?>
<opencv_storage>
<cascade>
  <stageType>BOOST</stageType>
  <featureType>HAAR</featureType>
  <height>24</height>
  <width>24</width>
  <stageParams>
    <boostType>GAB</boostType>
    <minHitRate>9.9500000476837158e-01</minHitRate>
    <maxFalseAlarm>5.0000000000000000e-01</maxFalseAlarm>
    <weightTrimRate>9.4999998807907104e-01</weightTrimRate>
    <maxDepth>1</maxDepth>
    <maxWeakCount>100</maxWeakCount></stageParams>
  <featureParams>
    <maxCatCount>0</maxCatCount>
    <featSize>1</featSize>
    <mode>BASIC</mode></featureParams>
  <stageNum>20</stageNum>
  <stages>
    <!-- stage 0 -->
    <_>
      <maxWeakCount>5</maxWeakCount>
      <stageThreshold>-1.7237586975097656e+00</stageThreshold>
      <weakClassifiers>
        <_>
          <internalNodes>
            0 -1 76 1.5652748942375183e-01</internalNodes>
          <leafValues>
            -8.4260594844818115e-01 1.9358406960964203e-01</leafValues></_>
        <_>
          <internalNodes>
            0 -1 82 -8.5214987397193909e-02</internalNodes>
          <leafValues>
            3.3541205525398254e-01 -7.7028018236160278e-01</leafValues></_>
        <_>
          <internalNodes>
            0 -1 584 8.6382897570729256e-03</internalNodes>
          <leafValues>
            -7.9873573780059814e-01 2.4800869822502136e-01</leafValues></_>
        <_>
          <internalNodes>
            0 -1 116 -5.5793360807001591e-03</internalNodes>
          <leafValues>
            2.8024876117706299e-01 -6.1779123544692993e-01</leafValues></_>
        <_>
          <internalNodes>
            0 -1 10 -2.8697651578113437e-04</internalNodes>
          <leafValues>
            2.5890991091728210e-01 -5.6240701675415039e-01</leafValues></_></weakClassifiers></_>
    <!-- stage 1 -->
    <_>
      <maxWeakCount>8</maxWeakCount>
      <stageThreshold>-1.5544514656066895e+00</stageThreshold>
      <weakClassifiers>
        <_>
          <internalNodes>
            0 -1 215 -7.1877442300319672e-02</internalNodes>
          <leafValues>
            -1.1169219017028809e-01 -8.7461537122726440e-01</leafValues></_>
        <_>
          <internalNodes>
            0 -1 76 1.0241022706031799e-01</internalNodes>
          <leafValues>
            -7.7324926853179932e-01 2.9163804650306702e-01</leafValues></_>
        <_>
          <internalNodes>
            0 -1 29 -8.9325262233614922e-03</internalNodes>
          <leafValues>
            2.6997292041778564e-01 -7.1155411005020142e-01</leafValues></_>
        <_>
          <internalNodes>
            0 -1 19 -7.3707208037376404e-02</internalNodes>
          <leafValues>
            4.1087409853935242e-01 -5.0926452875137329e-01</leafValues></_>
        <_>
          <internalNodes>
            0 -1 72 -5.7425372302532196e-02</internalNodes>
          <leafValues>
            4.5270264148712158e-01 -3.3385068178176880e-01</leafValues></_>
        <_>
          <internalNodes>
            0 -1 443 3.3700941130518913e-03</internalNodes>
          <leafValues>
            -4.9854722619056702e-01 2.7724093198776245e-01</leafValues></_>
        <_>
          <internalNodes>
            0 -1 310 -1.6257230192422867e-02</internalNodes>
          <leafValues>
            -8.5419535636901855e-01 1.5583121776580811e-01</leafValues></_>
        <_>
          <internalNodes>
            0 -1 577 1.1204225011169910e-03</internalNodes>
          <leafValues>
            -4.3713098764419556e-01 2.4634833633899689e-01</leafValues></_></weakClassifiers></_>
    <!-- stage 2 -->
    <_>
      <maxWeakCount>12</maxWeakCount>
      <stageThreshold>-1.7073954343795776e+00</stageThreshold>
      <weakClassifiers>
        <_>
          <internalNodes>
            0 -1 48 2.3933272808790207e-02</internalNodes>
          <leafValues>
            -7.5209271907806396e-01 -1.0916627943515778e-01</leafValues></_>
        <_>
          <internalNodes>
            0 -1 301 -2.0533580332994461e-02</internalNodes>
          <leafValues>
            2.0090538263320923e-01 -7.0559495687484741e-01</leafValues></_>
        <_>
          <internalNodes>
            0 -1 415 -3.1867515644989908e-05</internalNodes>
          <leafValues>
            2.6937180757522583e-01 -5.6789380311965942e-01</leafValues></_>
        <_>
          <internalNodes>
            0 -1 94 7.0126942591741681e-04</internalNodes>
          <leafValues>
            -5.4998022317886353e-01 2.5494468212127686e-01</leafValues></_>
        <_>
          <internalNodes>
            0 -1 25 -2.1018869301769882e-04</internalNodes>
          <leafValues>
            2.1969401836395264e-01 -6.4894300699234009e-01</leafValues></_>
        <_>
          <internalNodes>
            0 -1 511 1.8933698302134871e-03</internalNodes>
          <leafValues>
            -5.8620083332061768e-01 2.1445903182029724e-01</leafValues></_>
        <_>
          <internalNodes>
            0 -1 495 -2.3877676576375961e-02</internalNodes>
          <leafValues>
            2.5394165515899658e-01 -4.6590483188629150e-01</leafValues></_>
        <_>
          <internalNodes>
            0 -1 571 1.1132101062685251e-03</internalNodes>
          <leafValues>
            -4.1900125145912170e-01 2.6788294315338135e-01</leafValues></_>
        <_>
          <internalNodes>
            0 -1 359 1.4171677175909281e-03</internalNodes>
          <leafValues>
            1.2052816152572632e-01 -8.4514671564102173e-01</leafValues></_>
        <_>
          <internalNodes>
            0 -1 453 9.3744357582181692e-04</internalNodes>
          <leafValues>
            1.1368372291326523e-01 -7.1371316909790039e-01</leafValues></_>
        <_>
          <internalNodes>
            0 -1 560 1.4441956591326743e-04</internalNodes>
          <leafValues>
            -5.2445739507675171e-01 1.5049029886722565e-01</leafValues></_>
        <_>
          <internalNodes>
            0 -1 164 -5.5343291023746133e-05</internalNodes>
          <leafValues>
            2.6609933376312256e-01 -3.5264346003532410e-01</leafValues></_></weakClassifiers></_>
    <!-- stage 3 -->
    <_>
      <maxWeakCount>16</maxWeakCount>
      <stageThreshold>-1.8364059925079346e+00</stageThreshold>
      <weakClassifiers>
        <_>
          <internalNodes>
            0 -1 36 4.1233792901039124e-02</internalNodes>
          <leafValues>
            -6.3308489322662354e-01 5.3667262196540833e-02</leafValues></_>
        <_>
          <internalNodes>
            0 -1 187 -4.5020580291748047e-02</internalNodes>
          <leafValues>
            1.1911074072122574e-01 -6.8849909305572510e-01</leafValues></_>
        <_>
          <internalNodes>
            0 -1 468 2.8636261820793152e-02</internalNodes>
          <leafValues>
            -5.3014177083969116e-01 2.3212629556655884e-01</leafValues></_>
        <_>
          <internalNodes>
            0 -1 19 -1.6619496047496796e-01</internalNodes>
          <leafValues>
            4.5520567893981934e-01 -2.4594607949256897e-01</leafValues></_>
        <_>
          <internalNodes>
            0 -1 119 -7.4305915040895343e-04</internalNodes>
          <leafValues>
            2.4624760448932648e-01 -4.5699405670166016e-01</leafValues></_>
        <_>
          <internalNodes>
            0 -1 97 1.4522937126457691e-03</internalNodes>
          <leafValues>
            -3.8482069969177246e-01 2.6371052861213684e-01</leafValues></_>
        <_>
          <internalNodes>
            0 -1 526 1.2598345056176186e-03</internalNodes>
          <leafValues>
            -5.0195169448852539e-01 2.1368698775768280e-01</leafValues></_>
        <_>
          <internalNodes>
            0 -1 257 -7.7794082462787628e-02</internalNodes>
          <leafValues>
            4.2101773619651794e-01 -2.5184401869773865e-01</leafValues></_>
        <_>
          <internalNodes>
            0 -1 529 -1.3396603753790259e-04</internalNodes>
          <leafValues>
            2.2806887328624725e-01 -3.9094609022140503e-01</leafValues></_>
        <_>
          <internalNodes>
            0 -1 89 3.4246256109327078e-04</internalNodes>
          <leafValues>
            -5.3980654478073120e-01 1.8163380026817322e-01</leafValues></_>
        <_>
          <internalNodes>
            0 -1 120 -5.5377390235662460e-03</internalNodes>
          <leafValues>
            -7.3118758201599121e-01 1.1099474132061005e-01</leafValues></_>
        <_>
          <internalNodes>
            0 -1 580 -2.6593715883791447e-03</internalNodes>
          <leafValues>
            -7.0780724287033081e-01 8.5645735263824463e-02</leafValues></_>
        <_>
          <internalNodes>
            0 -1 185 -1.8652654252946377e-03</internalNodes>
          <leafValues>
            -7.4327027797698975e-01 9.9747911095619202e-02</leafValues></_>
        <_>
          <internalNodes>
            0 -1 197 4.5168222859501839e-03</internalNodes>
          <leafValues>
            9.2046178877353668e-02 -7.5507384538650513e-01</leafValues></_>
        <_>
          <internalNodes>
            0 -1 411 5.7610636577010155e-04</internalNodes>
          <leafValues>
            6.9962695240974426e-02 -8.0399316549301147e-01</leafValues></_>
        <_>
          <internalNodes>
            0 -1 4 -1.7027289140969515e-04</internalNodes>
          <leafValues>
            2.1490949392318726e-01 -3.4420868754386902e-01</leafValues></_></weakClassifiers></_>
    <!-- stage 4 -->
    <_>
      <maxWeakCount>7</maxWeakCount>
      <stageThreshold>-1.7971305847167969e+00</stageThreshold>
      <weakClassifiers>
        <_>
          <internalNodes>
            0 -1 80 -1.0935935378074646e-01</internalNodes>
          <leafValues>
            3.1408306211233139e-02 -7.9775959253311157e-01</leafValues></_>
        <_>
          <internalNodes>
            0 -1 16 -8.9909398229792714e-04</internalNodes>
          <leafValues>
            2.2600255906581879e-01 -6.8032729625701904e-01</leafValues></_>
        <_>
          <internalNodes>
            0 -1 265 3.4088551998138428e-02</internalNodes>
          <leafValues>
            -2.3443062603473663e-01 7.2709792852401733e-01</leafValues></_>
        <_>
          <internalNodes>
            0 -1 346 -2.2494014352560043e-02</internalNodes>
          <leafValues>
            4.9470606446266174e-01 -2.6784613728523254e-01</leafValues></_>
        <_>
          <internalNodes>
            0 -1 38 -6.0268938541412354e-03</internalNodes>
          <leafValues>
            2.2557274997234344e-01 -5.6965601444244385e-01</leafValues></_>
        <_>
          <internalNodes>
            0 -1 634 -2.6660438743419945e-04</internalNodes>
          <leafValues>
            -6.0547280311584473e-01 1.7739810049533844e-01</leafValues></_>
        <_>
          <internalNodes>
            0 -1 625 -2.7851001505041495e-05</internalNodes>
          <leafValues>
            2.8013095259666443e-01 -3.1052017211914063e-01</leafValues></_></weakClassifiers></_>
    <!-- stage 5 -->
    <_>
      <maxWeakCount>20</maxWeakCount>
      <stageThreshold>-1.6233501434326172e+00</stageThreshold>
      <weakClassifiers>
        <_>
          <internalNodes>
            0 -1 293 2.9275733977556229e-02</internalNodes>
          <leafValues>
            -5.8722043037414551e-01 3.1615120172500610e-01</leafValues></_>
        <_>
          <internalNodes>
            0 -1 75 -1.5959002077579498e-01</internalNodes>
          <leafValues>
            2.0912453532218933e-01 -5.2071130275726318e-01</leafValues></_>
        <_>
          <internalNodes>
            0 -1 14 -1.8764875829219818e-02</internalNodes>
          <leafValues>
            2.2958405315876007e-01 -3.9690068364143372e-01</leafValues></_>
        <_>
          <internalNodes>
            0 -1 406 4.1289154440164566e-02</internalNodes>
          <leafValues>
            -5.9043645858764648e-01 1.7602708935737610e-01</leafValues></_>
        <_>
          <internalNodes>
            0 -1 2 8.7477586930617690e-04</internalNodes>
          <leafValues>
            6.5181344747543335e-02 -7.4416857957839966e-01</leafValues></_>
        <_>
          <internalNodes>
            0 -1 412 4.0280754910781980e-04</internalNodes>
          <leafValues>
            8.3774603903293610e-02 -7.4538856744766235e-01</leafValues></_>
        <_>
          <internalNodes>
            0 -1 95 1.7213034443557262e-03</internalNodes>
          <leafValues>
            -3.3849221467971802e-01 1.8741872906684875e-01</leafValues></_>
        <_>
          <internalNodes>
            0 -1 329 -2.0666841417551041e-02</internalNodes>
          <leafValues>
            1.7225177586078644e-01 -3.6802944540977478e-01</leafValues></_>
        <_>
          <internalNodes>
            0 -1 474 5.9886917006224394e-04</internalNodes>
          <leafValues>
            1.2225354462862015e-01 -5.4355818033218384e-01</leafValues></_>
        <_>
          <internalNodes>
            0 -1 255 -4.3479464948177338e-03</internalNodes>
          <leafValues>
            1.5570260584354401e-01 -3.7995058298110962e-01</leafValues></_>
        <_>
          <internalNodes>
            0 -1 419 -1.3158655492588878e-03</internalNodes>
          <leafValues>
            -7.0133972167968750e-01 9.1572158038616180e-02</leafValues></_>
        <_>
          <internalNodes>
            0 -1 432 -2.4699824862182140e-03</internalNodes>
          <leafValues>
            2.1417975425720215e-01 -2.8936916589736938e-01</leafValues></_>
        <_>
          <internalNodes>
            0 -1 312 -4.1178036481142044e-02</internalNodes>
          <leafValues>
            2.6651027798652649e-01 -2.2832573950290680e-01</leafValues></_>
        <_>
          <internalNodes>
            0 -1 150 -1.2264569289982319e-02</internalNodes>
          <leafValues>
            5.1331061124801636e-01 -1.3393722474575043e-01</leafValues></_>
        <_>
          <internalNodes>
            0 -1 23 -1.0251500643789768e-03</internalNodes>
          <leafValues>
            -5.6127208471298218e-01 1.2607121467590332e-01</leafValues></_>
        <_>
          <internalNodes>
            0 -1 12 -2.0804645027965307e-03</internalNodes>
          <leafValues>
            1.2106895446777344e-01 -4.3301886320114136e-01</leafValues></_>
        <_>
          <internalNodes>
            0 -1 198 -1.9205722957849503e-02</internalNodes>
          <leafValues>
            -7.0517957210540771e-01 8.9200191199779510e-02</leafValues></_>
        <_>
          <internalNodes>
            0 -1 117 -3.9812684059143066e-01</internalNodes>
          <leafValues>
            7.1324032545089722e-01 -1.0066843032836914e-01</leafValues></_>
        <_>
          <internalNodes>
            0 -1 601 3.0676055757794529e-05</internalNodes>
          <leafValues>
            -3.4576365351676941e-01 2.0317392051219940e-01</leafValues></_>
        <_>
          <internalNodes>
            0 -1 282 -5.5714961490593851e-05</internalNodes>
          <leafValues>
            1.8658657371997833e-01 -3.0859988927841187e-01</leafValues></_></weakClassifiers></_>
    <!-- stage 6 -->
    <_>
      <maxWeakCount>23</maxWeakCount>
      <stageThreshold>-1.6435039043426514e+00</stageThreshold>
      <weakClassifiers>
        <_>
          <internalNodes>
            0 -1 263 4.0626883506774902e-02</internalNodes>
          <leafValues>
            -5.9251004457473755e-01 1.0745891183614731e-01</leafValues></_>
        <_>
          <internalNodes>
            0 -1 44 1.5576024539768696e-02</internalNodes>
          <leafValues>
            -4.3165826797485352e-01 1.5494151413440704e-01</leafValues></_>
        <_>
          <internalNodes>
            0 -1 324 -2.0856823772192001e-02</internalNodes>
          <leafValues>
            3.1372866034507751e-01 -2.6296299695968628e-01</leafValues></_>
        <_>
          <internalNodes>
            0 -1 546 1.0644493624567986e-02</internalNodes>
          <leafValues>
            -3.8993412256240845e-01 1.9334474205970764e-01</leafValues></_>
        <_>
          <internalNodes>
            0 -1 550 -3.0554700060747564e-05</internalNodes>
          <leafValues>
            2.4797493219375610e-01 -3.3170005679130554e-01</leafValues></_>
        <_>
          <internalNodes>
            0 -1 488 5.0065957475453615e-04</internalNodes>
          <leafValues>
            -4.7978380322456360e-01 1.4627528190612793e-01</leafValues></_>
        <_>
          <internalNodes>
            0 -1 142 -1.8146570771932602e-02</internalNodes>
          <leafValues>
            1.9522252678871155e-01 -3.5408234596252441e-01</leafValues></_>
        <_>
          <internalNodes>
            0 -1 582 -1.2504736660048366e-03</internalNodes>
          <leafValues>
            -7.6402205228805542e-01 7.4805215001106262e-02</leafValues></_>
        <_>
          <internalNodes>
            0 -1 389 -3.4118891926482320e-04</internalNodes>
          <leafValues>
            -6.2899082899093628e-01 8.4572695195674896e-02</leafValues></_>
        <_>
          <internalNodes>
            0 -1 248 -2.7482321456773207e-05</internalNodes>
          <leafValues>
            1.7521706223487854e-01 -3.4425714612007141e-01</leafValues></_>
        <_>
          <internalNodes>
            0 -1 171 -2.5973757728934288e-03</internalNodes>
          <leafValues>
            1.5435318648815155e-01 -3.5646471381187439e-01</leafValues></_>
        <_>
          <internalNodes>
            0 -1 100 8.2758180797100067e-03</internalNodes>
          <leafValues>
            -2.4886743724346161e-01 2.6254403591156006e-01</leafValues></_>
        <_>
          <internalNodes>
            0 -1 350 -2.2895913571119308e-03</internalNodes>
          <leafValues>
            1.3717010617256165e-01 -3.9614328742027283e-01</leafValues></_>
        <_>
          <internalNodes>
            0 -1 489 3.3428145106881857e-03</internalNodes>
          <leafValues>
            8.1105321645736694e-02 -7.0505160093307495e-01</leafValues></_>
        <_>
          <internalNodes>
            0 -1 200 -3.3648896217346191e-01</internalNodes>
          <leafValues>
            7.8070670366287231e-01 -9.5764286816120148e-02</leafValues></_>
        <_>
          <internalNodes>
            0 -1 565 2.6798603357747197e-05</internalNodes>
          <leafValues>
            -3.6408212780952454e-01 1.6965849697589874e-01</leafValues></_>
        <_>
          <internalNodes>
            0 -1 108 -6.3970236806198955e-04</internalNodes>
          <leafValues>
            -8.3111506700515747e-01 5.7747680693864822e-02</leafValues></_>
        <_>
          <internalNodes>
            0 -1 416 -8.3190174773335457e-03</internalNodes>
          <leafValues>
            -5.0420600175857544e-01 9.3912675976753235e-02</leafValues></_>
        <_>
          <internalNodes>
            0 -1 219 5.0983084365725517e-03</internalNodes>
          <leafValues>
            -1.5243370831012726e-01 3.5229405760765076e-01</leafValues></_>
        <_>
          <internalNodes>
            0 -1 145 -1.5324924606829882e-03</internalNodes>
          <leafValues>
            -7.6157939434051514e-01 7.0228569209575653e-02</leafValues></_>
        <_>
          <internalNodes>
            0 -1 152 -3.3847600221633911e-02</internalNodes>
          <leafValues>
            5.0536316633224487e-01 -1.0005518049001694e-01</leafValues></_>
        <_>
          <internalNodes>
            0 -1 472 -1.1126846075057983e-02</internalNodes>
          <leafValues>
            -7.7368479967117310e-01 6.6216364502906799e-02</leafValues></_>
        <_>
          <internalNodes>
            0 -1 397 -5.0302408635616302e-03</internalNodes>
          <leafValues>
            1.9694317877292633e-01 -2.1580855548381805e-01</leafValues></_></weakClassifiers></_>
    <!-- stage 7 -->
    <_>
      <maxWeakCount>28</maxWeakCount>
      <stageThreshold>-1.5889513492584229e+00</stageThreshold>
      <weakClassifiers>
        <_>
          <internalNodes>
            0 -1 317 4.2902704328298569e-02</internalNodes>
          <leafValues>
            -5.7798165082931519e-01 2.3050847649574280e-01</leafValues></_>
        <_>
          <internalNodes>
            0 -1 628 4.6886363998055458e-03</internalNodes>
          <leafValues>
            -5.3296846151351929e-01 7.6883099973201752e-02</leafValues></_>
        <_>
          <internalNodes>
            0 -1 217 -4.7478146851062775e-02</internalNodes>
          <leafValues>
            1.0959395766258240e-01 -5.7571190595626831e-01</leafValues></_>
        <_>
          <internalNodes>
            0 -1 113 -5.4886221187189221e-04</internalNodes>
          <leafValues>
            2.2286355495452881e-01 -2.9114383459091187e-01</leafValues></_>
        <_>
          <internalNodes>
            0 -1 462 -9.4525777967646718e-04</internalNodes>
          <leafValues>
            2.0783540606498718e-01 -2.7408373355865479e-01</leafValues></_>
        <_>
          <internalNodes>
            0 -1 3 6.3358964398503304e-03</internalNodes>
          <leafValues>
            -3.6992812156677246e-01 1.6571690142154694e-01</leafValues></_>
        <_>
          <internalNodes>
            0 -1 57 -2.4401066184509546e-04</internalNodes>
          <leafValues>
            1.2920069694519043e-01 -4.7253543138504028e-01</leafValues></_>
        <_>
          <internalNodes>
            0 -1 369 -2.1855993196368217e-02</internalNodes>
          <leafValues>
            2.7592301368713379e-01 -2.0579598844051361e-01</leafValues></_>
        <_>
          <internalNodes>
            0 -1 564 5.0026155076920986e-04</internalNodes>
          <leafValues>
            7.1767367422580719e-02 -8.4530967473983765e-01</leafValues></_>
        <_>
          <internalNodes>
            0 -1 572 -4.4027974945493042e-04</internalNodes>
          <leafValues>
            -6.9550752639770508e-01 4.9976289272308350e-02</leafValues></_>
        <_>
          <internalNodes>
            0 -1 602 -4.3374282540753484e-05</internalNodes>
          <leafValues>
            1.8642786145210266e-01 -2.6639342308044434e-01</leafValues></_>
        <_>
          <internalNodes>
            0 -1 261 -3.6287277936935425e-02</internalNodes>
          <leafValues>
            3.2059863209724426e-01 -1.6218645870685577e-01</leafValues></_>
        <_>
          <internalNodes>
            0 -1 32 -3.0179089307785034e-01</internalNodes>
          <leafValues>
            6.7167365550994873e-01 -8.1486605107784271e-02</leafValues></_>
        <_>
          <internalNodes>
            0 -1 93 8.1872730515897274e-04</internalNodes>
          <leafValues>
            -3.7057536840438843e-01 1.5426850318908691e-01</leafValues></_>
        <_>
          <internalNodes>
            0 -1 8 1.3937028124928474e-02</internalNodes>
          <leafValues>
            6.0364320874214172e-02 -7.9299145936965942e-01</leafValues></_>
        <_>
          <internalNodes>
            0 -1 195 -4.6217879280447960e-03</internalNodes>
          <leafValues>
            1.3207212090492249e-01 -3.5320770740509033e-01</leafValues></_>
        <_>
          <internalNodes>
            0 -1 13 -1.5451757237315178e-02</internalNodes>
          <leafValues>
            -6.0404598712921143e-01 8.5668936371803284e-02</leafValues></_>
        <_>
          <internalNodes>
            0 -1 84 -5.6897691683843732e-04</internalNodes>
          <leafValues>
            -5.9172129631042480e-01 6.6655658185482025e-02</leafValues></_>
        <_>
          <internalNodes>
            0 -1 467 -4.2310103774070740e-02</internalNodes>
          <leafValues>
            -8.5788381099700928e-01 3.8268156349658966e-02</leafValues></_>
        <_>
          <internalNodes>
            0 -1 374 -5.2763711661100388e-02</internalNodes>
          <leafValues>
            5.5931890010833740e-01 -8.4821671247482300e-02</leafValues></_>
        <_>
          <internalNodes>
            0 -1 535 -3.2161624403670430e-04</internalNodes>
          <leafValues>
            -4.3233555555343628e-01 9.2697218060493469e-02</leafValues></_>
        <_>
          <internalNodes>
            0 -1 583 -2.5972668081521988e-03</internalNodes>
          <leafValues>
            1.7413970828056335e-01 -2.3143576085567474e-01</leafValues></_>
        <_>
          <internalNodes>
            0 -1 287 3.9716792106628418e-01</internalNodes>
          <leafValues>
            -6.8333387374877930e-02 6.3683074712753296e-01</leafValues></_>
        <_>
          <internalNodes>
            0 -1 575 8.6888525402173400e-04</internalNodes>
          <leafValues>
            9.8609313368797302e-02 -4.7172293066978455e-01</leafValues></_>
        <_>
          <internalNodes>
            0 -1 147 -4.3968698009848595e-03</internalNodes>
          <leafValues>
            3.3403238654136658e-01 -1.2016389518976212e-01</leafValues></_>
        <_>
          <internalNodes>
            0 -1 562 9.2803931329399347e-04</internalNodes>
          <leafValues>
            -3.5521814227104187e-01 1.1248356103897095e-01</leafValues></_>
        <_>
          <internalNodes>
            0 -1 386 -9.7891464829444885e-03</internalNodes>
          <leafValues>
            -5.2519011497497559e-01 8.0352239310741425e-02</leafValues></_>
        <_>
          <internalNodes>
            0 -1 162 -2.8704630676656961e-03</internalNodes>
          <leafValues>
            1.2436007708311081e-01 -3.4336405992507935e-01</leafValues></_></weakClassifiers></_>
    <!-- stage 8 -->
    <_>
      <maxWeakCount>30</maxWeakCount>
      <stageThreshold>-1.5256539583206177e+00</stageThreshold>
      <weakClassifiers>
        <_>
          <internalNodes>
            0 -1 316 3.2464031130075455e-02</internalNodes>
          <leafValues>
            -6.2253248691558838e-01 1.1576135642826557e-02</leafValues></_>
        <_>
          <internalNodes>
            0 -1 305 -2.5253603234887123e-02</internalNodes>
          <leafValues>
            7.3588259518146515e-02 -4.6586307883262634e-01</leafValues></_>
        <_>
          <internalNodes>
            0 -1 192 -7.5978488894179463e-04</internalNodes>
          <leafValues>
            -7.3205322027206421e-01 7.6314672827720642e-02</leafValues></_>
        <_>
          <internalNodes>
            0 -1 500 -6.1496878042817116e-03</internalNodes>
          <leafValues>
            2.3826666176319122e-01 -2.2994989156723022e-01</leafValues></_>
        <_>
          <internalNodes>
            0 -1 286 4.1264533996582031e-02</internalNodes>
          <leafValues>
            -1.0807253420352936e-01 5.3712368011474609e-01</leafValues></_>
        <_>
          <internalNodes>
            0 -1 83 1.3805530034005642e-03</internalNodes>
          <leafValues>
            1.1630950123071671e-01 -3.7159284949302673e-01</leafValues></_>
        <_>
          <internalNodes>
            0 -1 291 -4.9893952906131744e-02</internalNodes>
          <leafValues>
            3.1930851936340332e-01 -1.3636168837547302e-01</leafValues></_>
        <_>
          <internalNodes>
            0 -1 612 -1.8900258000940084e-03</internalNodes>
          <leafValues>
            1.4680977165699005e-01 -3.0889126658439636e-01</leafValues></_>
        <_>
          <internalNodes>
            0 -1 428 -1.5590623952448368e-02</internalNodes>
          <leafValues>
            2.4158705770969391e-01 -2.1450719237327576e-01</leafValues></_>
        <_>
          <internalNodes>
            0 -1 309 -1.1121393181383610e-03</internalNodes>
          <leafValues>
            -6.0566020011901855e-01 8.0647125840187073e-02</leafValues></_>
        <_>
          <internalNodes>
            0 -1 42 1.8896821886301041e-02</internalNodes>
          <leafValues>
            -1.4040727913379669e-01 3.3440524339675903e-01</leafValues></_>
        <_>
          <internalNodes>
            0 -1 224 -2.8263173589948565e-05</internalNodes>
          <leafValues>
            1.5885913372039795e-01 -2.9347309470176697e-01</leafValues></_>
        <_>
          <internalNodes>
            0 -1 9 7.0275733014568686e-04</internalNodes>
          <leafValues>
            8.6941428482532501e-02 -5.5087232589721680e-01</leafValues></_>
        <_>
          <internalNodes>
            0 -1 96 1.8301593139767647e-02</internalNodes>
          <leafValues>
            -2.8881788253784180e-01 1.3226380944252014e-01</leafValues></_>
        <_>
          <internalNodes>
            0 -1 353 -1.9055999815464020e-02</internalNodes>
          <leafValues>
            -5.4736691713333130e-01 6.8258188664913177e-02</leafValues></_>
        <_>
          <internalNodes>
            0 -1 542 3.0361730023287237e-04</internalNodes>
          <leafValues>
            8.2746259868144989e-02 -4.5621925592422485e-01</leafValues></_>
        <_>
          <internalNodes>
            0 -1 235 -4.8221603035926819e-02</internalNodes>
          <leafValues>
            3.2260546088218689e-01 -1.5140430629253387e-01</leafValues></_>
        <_>
          <internalNodes>
            0 -1 327 -4.7496527433395386e-02</internalNodes>
          <leafValues>
            -6.0836380720138550e-01 7.5375035405158997e-02</leafValues></_>
        <_>
          <internalNodes>
            0 -1 499 -1.3112684246152639e-03</internalNodes>
          <leafValues>
            -4.2946478724479675e-01 7.3893219232559204e-02</leafValues></_>
        <_>
          <internalNodes>
            0 -1 605 -3.6984251346439123e-03</internalNodes>
          <leafValues>
            1.4979717135429382e-01 -2.5474792718887329e-01</leafValues></_>
        <_>
          <internalNodes>
            0 -1 510 1.8220344185829163e-01</internalNodes>
          <leafValues>
            6.1966121196746826e-02 -6.0978412628173828e-01</leafValues></_>
        <_>
          <internalNodes>
            0 -1 357 -3.9977774024009705e-02</internalNodes>
          <leafValues>
            -4.8814767599105835e-01 7.3502443730831146e-02</leafValues></_>
        <_>
          <internalNodes>
            0 -1 567 -1.5152645297348499e-02</internalNodes>
          <leafValues>
            3.6066624522209167e-01 -1.0827773064374924e-01</leafValues></_>
        <_>
          <internalNodes>
            0 -1 576 7.1734022349119186e-03</internalNodes>
          <leafValues>
            -1.0633087158203125e-01 3.7347769737243652e-01</leafValues></_>
        <_>
          <internalNodes>
            0 -1 619 6.1168649699538946e-04</internalNodes>
          <leafValues>
            4.3391134589910507e-02 -9.0180987119674683e-01</leafValues></_>
        <_>
          <internalNodes>
            0 -1 311 -2.2606827318668365e-02</internalNodes>
          <leafValues>
            -7.1088230609893799e-01 3.8432508707046509e-02</leafValues></_>
        <_>
          <internalNodes>
            0 -1 464 6.6676349379122257e-03</internalNodes>
          <leafValues>
            -4.0127521753311157e-01 8.1807523965835571e-02</leafValues></_>
        <_>
          <internalNodes>
            0 -1 362 1.7266591021325439e-04</internalNodes>
          <leafValues>
            1.0895072668790817e-01 -3.0650174617767334e-01</leafValues></_>
        <_>
          <internalNodes>
            0 -1 417 -2.5404500961303711e-01</internalNodes>
          <leafValues>
            7.5004935264587402e-01 -4.9886692315340042e-02</leafValues></_>
        <_>
          <internalNodes>
            0 -1 554 -4.6037253923714161e-04</internalNodes>
          <leafValues>
            -3.5059857368469238e-01 1.0781359672546387e-01</leafValues></_></weakClassifiers></_>
    <!-- stage 9 -->
    <_>
      <maxWeakCount>37</maxWeakCount>
      <stageThreshold>-1.6105779409408569e+00</stageThreshold>
      <weakClassifiers>
        <_>
          <internalNodes>
            0 -1 366 5.5632747709751129e-02</internalNodes>
          <leafValues>
            -5.8806502819061279e-01 8.6513996124267578e-02</leafValues></_>
        <_>
          <internalNodes>
            0 -1 215 -9.6729055047035217e-02</internalNodes>
          <leafValues>
            7.2412021458148956e-02 -4.5182234048843384e-01</leafValues></_>
        <_>
          <internalNodes>
            0 -1 388 -3.1370196666102856e-05</internalNodes>
          <leafValues>
            1.4122164249420166e-01 -3.2573077082633972e-01</leafValues></_>
        <_>
          <internalNodes>
            0 -1 584 9.9756289273500443e-03</internalNodes>
          <leafValues>
            -4.7309288382530212e-01 1.1066762357950211e-01</leafValues></_>
        <_>
          <internalNodes>
            0 -1 107 4.7546843416057527e-04</internalNodes>
          <leafValues>
            1.0070123523473740e-01 -5.3744518756866455e-01</leafValues></_>
        <_>
          <internalNodes>
            0 -1 146 -6.2531996518373489e-03</internalNodes>
          <leafValues>
            4.6600353717803955e-01 -9.6575371921062469e-02</leafValues></_>
        <_>
          <internalNodes>
            0 -1 449 1.1754538863897324e-02</internalNodes>
          <leafValues>
            7.1067392826080322e-02 -6.3213932514190674e-01</leafValues></_>
        <_>
          <internalNodes>
            0 -1 501 -5.4246652871370316e-03</internalNodes>
          <leafValues>
            1.5027640759944916e-01 -2.5751289725303650e-01</leafValues></_>
        <_>
          <internalNodes>
            0 -1 267 7.8583940863609314e-02</internalNodes>
          <leafValues>
            -6.9232188165187836e-02 6.4546537399291992e-01</leafValues></_>
        <_>
          <internalNodes>
            0 -1 66 9.4957463443279266e-03</internalNodes>
          <leafValues>
            -1.2447353452444077e-01 3.5445100069046021e-01</leafValues></_>
        <_>
          <internalNodes>
            0 -1 176 -2.0652670413255692e-02</internalNodes>
          <leafValues>
            -5.9858137369155884e-01 8.3321183919906616e-02</leafValues></_>
        <_>
          <internalNodes>
            0 -1 402 -2.8392716776579618e-03</internalNodes>
          <leafValues>
            1.4754749834537506e-01 -2.4481946229934692e-01</leafValues></_>
        <_>
          <internalNodes>
            0 -1 186 9.2734961071982980e-05</internalNodes>
          <leafValues>
            -3.7843036651611328e-01 1.2702760100364685e-01</leafValues></_>
        <_>
          <internalNodes>
            0 -1 199 -2.0937463641166687e-01</internalNodes>
          <leafValues>
            5.6130403280258179e-01 -7.4306368827819824e-02</leafValues></_>
        <_>
          <internalNodes>
            0 -1 124 -7.5644697062671185e-04</internalNodes>
          <leafValues>
            1.3420051336288452e-01 -3.4030178189277649e-01</leafValues></_>
        <_>
          <internalNodes>
            0 -1 167 -2.8443533927202225e-02</internalNodes>
          <leafValues>
            -4.8019561171531677e-01 9.0740300714969635e-02</leafValues></_>
        <_>
          <internalNodes>
            0 -1 283 -5.0584733486175537e-02</internalNodes>
          <leafValues>
            3.0284017324447632e-01 -1.6434961557388306e-01</leafValues></_>
        <_>
          <internalNodes>
            0 -1 258 1.9446428865194321e-02</internalNodes>
          <leafValues>
            -1.1094289273023605e-01 4.1786634922027588e-01</leafValues></_>
        <_>
          <internalNodes>
            0 -1 492 -2.1146528422832489e-02</internalNodes>
          <leafValues>
            -4.9142459034919739e-01 7.2578430175781250e-02</leafValues></_>
        <_>
          <internalNodes>
            0 -1 64 -5.1355669274926186e-03</internalNodes>
          <leafValues>
            1.7335638403892517e-01 -2.0608113706111908e-01</leafValues></_>
        <_>
          <internalNodes>
            0 -1 215 -3.5897765308618546e-02</internalNodes>
          <leafValues>
            6.6869296133518219e-02 -4.9706631898880005e-01</leafValues></_>
        <_>
          <internalNodes>
            0 -1 418 2.0884542027488351e-04</internalNodes>
          <leafValues>
            6.6624023020267487e-02 -5.1228225231170654e-01</leafValues></_>
        <_>
          <internalNodes>
            0 -1 276 3.0315708136186004e-04</internalNodes>
          <leafValues>
            7.0375032722949982e-02 -4.4571170210838318e-01</leafValues></_>
        <_>
          <internalNodes>
            0 -1 251 -4.4749632477760315e-02</internalNodes>
          <leafValues>
            1.5165488421916962e-01 -2.1263763308525085e-01</leafValues></_>
        <_>
          <internalNodes>
            0 -1 278 -4.8417737707495689e-03</internalNodes>
          <leafValues>
            1.4109843969345093e-01 -2.3663987219333649e-01</leafValues></_>
        <_>
          <internalNodes>
            0 -1 356 -4.6355803497135639e-03</internalNodes>
          <leafValues>
            -5.5232536792755127e-01 5.7664372026920319e-02</leafValues></_>
        <_>
          <internalNodes>
            0 -1 430 -4.8795081675052643e-03</internalNodes>
          <leafValues>
            1.6405574977397919e-01 -1.8417619168758392e-01</leafValues></_>
        <_>
          <internalNodes>
            0 -1 209 -3.1241476535797119e-02</internalNodes>
          <leafValues>
            4.0395504236221313e-01 -8.8143818080425262e-02</leafValues></_>
        <_>
          <internalNodes>
            0 -1 367 1.1813106539193541e-04</internalNodes>
          <leafValues>
            1.1851283162832260e-01 -2.9163655638694763e-01</leafValues></_>
        <_>
          <internalNodes>
            0 -1 188 -9.3648582696914673e-03</internalNodes>
          <leafValues>
            3.5393428802490234e-01 -9.9224403500556946e-02</leafValues></_>
        <_>
          <internalNodes>
            0 -1 404 -1.6977086663246155e-02</internalNodes>
          <leafValues>
            1.8320956826210022e-01 -1.9793847203254700e-01</leafValues></_>
        <_>
          <internalNodes>
            0 -1 239 -1.3221734762191772e-01</internalNodes>
          <leafValues>
            -5.0831425189971924e-01 8.4892295300960541e-02</leafValues></_>
        <_>
          <internalNodes>
            0 -1 60 -8.7185442447662354e-02</internalNodes>
          <leafValues>
            9.0072584152221680e-01 -4.7434967011213303e-02</leafValues></_>
        <_>
          <internalNodes>
            0 -1 471 5.8823986910283566e-04</internalNodes>
          <leafValues>
            5.5121947079896927e-02 -7.8652888536453247e-01</leafValues></_>
        <_>
          <internalNodes>
            0 -1 169 -3.0026936656213365e-05</internalNodes>
          <leafValues>
            1.3987880945205688e-01 -2.3306603729724884e-01</leafValues></_>
        <_>
          <internalNodes>
            0 -1 522 1.0044652299256995e-04</internalNodes>
          <leafValues>
            -3.2736614346504211e-01 9.7953349351882935e-02</leafValues></_>
        <_>
          <internalNodes>
            0 -1 483 -7.4772257357835770e-03</internalNodes>
          <leafValues>
            1.4683675765991211e-01 -2.1788582205772400e-01</leafValues></_></weakClassifiers></_>
    <!-- stage 10 -->
    <_>
      <maxWeakCount>46</maxWeakCount>
      <stageThreshold>-1.6399450302124023e+00</stageThreshold>
      <weakClassifiers>
        <_>
          <internalNodes>
            0 -1 269 1.3228207826614380e-02</internalNodes>
          <leafValues>
            -5.9739959239959717e-01 6.2521804707665256e-17</leafValues></_>
        <_>
          <internalNodes>
            0 -1 594 6.9227600470185280e-03</internalNodes>
          <leafValues>
            -1.8299998342990875e-01 3.6499884724617004e-01</leafValues></_>
        <_>
          <internalNodes>
            0 -1 81 -1.0430801659822464e-01</internalNodes>
          <leafValues>
            1.1759513616561890e-01 -3.6176100373268127e-01</leafValues></_>
        <_>
          <internalNodes>
            0 -1 228 -3.7843208701815456e-05</internalNodes>
          <leafValues>
            1.1697825789451599e-01 -3.0764475464820862e-01</leafValues></_>
        <_>
          <internalNodes>
            0 -1 121 -2.6521982625126839e-02</internalNodes>
          <leafValues>
            -5.2571672201156616e-01 8.9048691093921661e-02</leafValues></_>
        <_>
          <internalNodes>
            0 -1 170 -1.2092343531548977e-03</internalNodes>
          <leafValues>
            1.7402811348438263e-01 -2.1052722632884979e-01</leafValues></_>
        <_>
          <internalNodes>
            0 -1 516 -8.9701665565371513e-03</internalNodes>
          <leafValues>
            -7.7217543125152588e-01 5.3419414907693863e-02</leafValues></_>
        <_>
          <internalNodes>
            0 -1 63 -3.5871729254722595e-02</internalNodes>
          <leafValues>
            3.8289624452590942e-01 -1.0330799221992493e-01</leafValues></_>
        <_>
          <internalNodes>
            0 -1 135 1.5276740305125713e-02</internalNodes>
          <leafValues>
            -8.0016821622848511e-02 4.5891597867012024e-01</leafValues></_>
        <_>
          <internalNodes>
            0 -1 122 -3.4610837697982788e-01</internalNodes>
          <leafValues>
            5.7118463516235352e-01 -6.2363166362047195e-02</leafValues></_>
        <_>
          <internalNodes>
            0 -1 372 -8.2199871540069580e-03</internalNodes>
          <leafValues>
            2.5908347964286804e-01 -1.3397386670112610e-01</leafValues></_>
        <_>
          <internalNodes>
            0 -1 89 4.7827867092564702e-05</internalNodes>
          <leafValues>
            -4.3804797530174255e-01 8.0611325800418854e-02</leafValues></_>
        <_>
          <internalNodes>
            0 -1 105 -9.2718889936804771e-04</internalNodes>
          <leafValues>
            -6.7481499910354614e-01 4.6090751886367798e-02</leafValues></_>
        <_>
          <internalNodes>
            0 -1 256 -1.8526906147599220e-02</internalNodes>
          <leafValues>
            2.7745243906974792e-01 -1.2763430178165436e-01</leafValues></_>
        <_>
          <internalNodes>
            0 -1 423 4.1152496123686433e-04</internalNodes>
          <leafValues>
            1.0435667634010315e-01 -3.5395088791847229e-01</leafValues></_>
        <_>
          <internalNodes>
            0 -1 610 3.5286822821944952e-05</internalNodes>
          <leafValues>
            -2.0650234818458557e-01 1.6570243239402771e-01</leafValues></_>
        <_>
          <internalNodes>
            0 -1 569 -8.8760778307914734e-03</internalNodes>
          <leafValues>
            2.9532375931739807e-01 -1.0924623161554337e-01</leafValues></_>
        <_>
          <internalNodes>
            0 -1 336 -2.6457689236849546e-03</internalNodes>
          <leafValues>
            2.3070272803306580e-01 -1.4593017101287842e-01</leafValues></_>
        <_>
          <internalNodes>
            0 -1 330 -5.8281719684600830e-02</internalNodes>
          <leafValues>
            -5.4842191934585571e-01 5.9225108474493027e-02</leafValues></_>
        <_>
          <internalNodes>
            0 -1 485 1.6918564215302467e-02</internalNodes>
          <leafValues>
            5.5162757635116577e-02 -5.4247575998306274e-01</leafValues></_>
        <_>
          <internalNodes>
            0 -1 377 -1.0413920506834984e-02</internalNodes>
          <leafValues>
            1.8915286660194397e-01 -2.0251151919364929e-01</leafValues></_>
        <_>
          <internalNodes>
            0 -1 484 1.7015734920278192e-04</internalNodes>
          <leafValues>
            1.0972314327955246e-01 -3.0811625719070435e-01</leafValues></_>
        <_>
          <internalNodes>
            0 -1 597 -1.7015435150824487e-04</internalNodes>
          <leafValues>
            -3.4849265217781067e-01 9.2324174940586090e-02</leafValues></_>
        <_>
          <internalNodes>
            0 -1 268 -1.4711114764213562e-01</internalNodes>
          <leafValues>
            -7.3449915647506714e-01 3.9269659668207169e-02</leafValues></_>
        <_>
          <internalNodes>
            0 -1 69 2.9154485673643649e-05</internalNodes>
          <leafValues>
            -2.5264164805412292e-01 1.1527411639690399e-01</leafValues></_>
        <_>
          <internalNodes>
            0 -1 118 1.9757994450628757e-03</internalNodes>
          <leafValues>
            3.4769497811794281e-02 -8.3783555030822754e-01</leafValues></_>
        <_>
          <internalNodes>
            0 -1 168 1.7651766538619995e-01</internalNodes>
          <leafValues>
            -6.5173104405403137e-02 5.3236472606658936e-01</leafValues></_>
        <_>
          <internalNodes>
            0 -1 65 -8.5465572774410248e-02</internalNodes>
          <leafValues>
            7.1915042400360107e-01 -3.8540873676538467e-02</leafValues></_>
        <_>
          <internalNodes>
            0 -1 490 1.0639818385243416e-02</internalNodes>
          <leafValues>
            -7.9831309616565704e-02 3.6183601617813110e-01</leafValues></_>
        <_>
          <internalNodes>
            0 -1 435 -1.8917381763458252e-02</internalNodes>
          <leafValues>
            2.0503754913806915e-01 -1.6794422268867493e-01</leafValues></_>
        <_>
          <internalNodes>
            0 -1 506 6.4353674650192261e-02</internalNodes>
          <leafValues>
            1.4582379162311554e-01 -2.4805945158004761e-01</leafValues></_>
        <_>
          <internalNodes>
            0 -1 56 3.0570596456527710e-01</internalNodes>
          <leafValues>
            -9.3088090419769287e-02 3.9820101857185364e-01</leafValues></_>
        <_>
          <internalNodes>
            0 -1 126 -7.1669965982437134e-02</internalNodes>
          <leafValues>
            1.9712989032268524e-01 -1.7456856369972229e-01</leafValues></_>
        <_>
          <internalNodes>
            0 -1 294 -5.7142529636621475e-02</internalNodes>
          <leafValues>
            2.8437849879264832e-01 -1.2460139393806458e-01</leafValues></_>
        <_>
          <internalNodes>
            0 -1 280 1.6132709788507782e-05</internalNodes>
          <leafValues>
            -2.3244626820087433e-01 1.4573715627193451e-01</leafValues></_>
        <_>
          <internalNodes>
            0 -1 371 -2.7690473943948746e-03</internalNodes>
          <leafValues>
            1.5522970259189606e-01 -2.0940534770488739e-01</leafValues></_>
        <_>
          <internalNodes>
            0 -1 182 -5.1552377641201019e-02</internalNodes>
          <leafValues>
            -4.8634997010231018e-01 7.8061543405056000e-02</leafValues></_>
        <_>
          <internalNodes>
            0 -1 211 -2.9216308146715164e-02</internalNodes>
          <leafValues>
            3.8172882795333862e-01 -9.1333881020545959e-02</leafValues></_>
        <_>
          <internalNodes>
            0 -1 297 -6.8840524181723595e-03</internalNodes>
          <leafValues>
            1.7859621345996857e-01 -1.8750804662704468e-01</leafValues></_>
        <_>
          <internalNodes>
            0 -1 335 -6.5590003505349159e-03</internalNodes>
          <leafValues>
            -7.0427304506301880e-01 4.8683740198612213e-02</leafValues></_>
        <_>
          <internalNodes>
            0 -1 616 -4.4749369844794273e-03</internalNodes>
          <leafValues>
            -5.0875085592269897e-01 4.9279138445854187e-02</leafValues></_>
        <_>
          <internalNodes>
            0 -1 103 -1.3484680093824863e-03</internalNodes>
          <leafValues>
            -6.5475749969482422e-01 4.0279973298311234e-02</leafValues></_>
        <_>
          <internalNodes>
            0 -1 86 1.5337469056248665e-02</internalNodes>
          <leafValues>
            -2.3323573172092438e-01 1.2597160041332245e-01</leafValues></_>
        <_>
          <internalNodes>
            0 -1 218 -1.6249045729637146e-03</internalNodes>
          <leafValues>
            4.3596160411834717e-01 -9.0804778039455414e-02</leafValues></_>
        <_>
          <internalNodes>
            0 -1 110 -9.5090048853307962e-04</internalNodes>
          <leafValues>
            -3.3135357499122620e-01 8.5011154413223267e-02</leafValues></_>
        <_>
          <internalNodes>
            0 -1 370 -7.6167467050254345e-03</internalNodes>
          <leafValues>
            1.1908610165119171e-01 -2.2940993309020996e-01</leafValues></_></weakClassifiers></_>
    <!-- stage 11 -->
    <_>
      <maxWeakCount>42</maxWeakCount>
      <stageThreshold>-1.5266988277435303e+00</stageThreshold>
      <weakClassifiers>
        <_>
          <internalNodes>
            0 -1 50 5.1560092717409134e-02</internalNodes>
          <leafValues>
            -5.8853209018707275e-01 -7.6335878111422062e-03</leafValues></_>
        <_>
          <internalNodes>
            0 -1 549 3.5649303754325956e-05</internalNodes>
          <leafValues>
            -2.9311183094978333e-01 1.2326551228761673e-01</leafValues></_>
        <_>
          <internalNodes>
            0 -1 67 3.4572193399071693e-03</internalNodes>
          <leafValues>
            -2.9951527714729309e-01 1.3095594942569733e-01</leafValues></_>
        <_>
          <internalNodes>
            0 -1 450 -4.6561248600482941e-03</internalNodes>
          <leafValues>
            -4.8727667331695557e-01 1.1803415417671204e-01</leafValues></_>
        <_>
          <internalNodes>
            0 -1 473 -4.5711424900218844e-04</internalNodes>
          <leafValues>
            1.8792575597763062e-01 -2.7998551726341248e-01</leafValues></_>
        <_>
          <internalNodes>
            0 -1 17 1.0659869294613600e-03</internalNodes>
          <leafValues>
            8.1486329436302185e-02 -4.9394789338111877e-01</leafValues></_>
        <_>
          <internalNodes>
            0 -1 46 -8.1604160368442535e-03</internalNodes>
          <leafValues>
            9.3942970037460327e-02 -4.2661926150321960e-01</leafValues></_>
        <_>
          <internalNodes>
            0 -1 289 3.0282787978649139e-02</internalNodes>
          <leafValues>
            -8.4451876580715179e-02 4.8024073243141174e-01</leafValues></_>
        <_>
          <internalNodes>
            0 -1 349 -9.0242810547351837e-03</internalNodes>
          <leafValues>
            1.2983702123165131e-01 -2.5973904132843018e-01</leafValues></_>
        <_>
          <internalNodes>
            0 -1 73 -2.4082572199404240e-03</internalNodes>
          <leafValues>
            1.8101070821285248e-01 -1.9114804267883301e-01</leafValues></_>
        <_>
          <internalNodes>
            0 -1 318 3.7473060190677643e-02</internalNodes>
          <leafValues>
            -4.0313887596130371e-01 9.8684966564178467e-02</leafValues></_>
        <_>
          <internalNodes>
            0 -1 413 8.7591650662943721e-04</internalNodes>
          <leafValues>
            1.7908832430839539e-01 -1.8810753524303436e-01</leafValues></_>
        <_>
          <internalNodes>
            0 -1 535 1.6571249580010772e-04</internalNodes>
          <leafValues>
            9.0286426246166229e-02 -3.3477097749710083e-01</leafValues></_>
        <_>
          <internalNodes>
            0 -1 207 2.3656520247459412e-01</internalNodes>
          <leafValues>
            9.7116023302078247e-02 -3.2119810581207275e-01</leafValues></_>
        <_>
          <internalNodes>
            0 -1 127 -2.8453137929318473e-05</internalNodes>
          <leafValues>
            1.5082602202892303e-01 -2.0325948297977448e-01</leafValues></_>
        <_>
          <internalNodes>
            0 -1 91 1.6294207889586687e-03</internalNodes>
          <leafValues>
            4.0042284876108170e-02 -7.6305663585662842e-01</leafValues></_>
        <_>
          <internalNodes>
            0 -1 247 -4.4482215889729559e-04</internalNodes>
          <leafValues>
            1.8347950279712677e-01 -1.6973215341567993e-01</leafValues></_>
        <_>
          <internalNodes>
            0 -1 295 -1.9836716353893280e-02</internalNodes>
          <leafValues>
            1.7370100319385529e-01 -2.0828178524971008e-01</leafValues></_>
        <_>
          <internalNodes>
            0 -1 590 9.4039431132841855e-05</internalNodes>
          <leafValues>
            -2.7971380949020386e-01 1.1928965151309967e-01</leafValues></_>
        <_>
          <internalNodes>
            0 -1 477 -4.3888702057301998e-03</internalNodes>
          <leafValues>
            1.6936305165290833e-01 -1.7653128504753113e-01</leafValues></_>
        <_>
          <internalNodes>
            0 -1 538 2.7960760518908501e-02</internalNodes>
          <leafValues>
            6.6069930791854858e-02 -5.3457885980606079e-01</leafValues></_>
        <_>
          <internalNodes>
            0 -1 600 -1.2715482152998447e-03</internalNodes>
          <leafValues>
            -6.8017596006393433e-01 3.6737006157636642e-02</leafValues></_>
        <_>
          <internalNodes>
            0 -1 613 -5.6002574274316430e-04</internalNodes>
          <leafValues>
            -4.0214750170707703e-01 6.6275790333747864e-02</leafValues></_>
        <_>
          <internalNodes>
            0 -1 98 -1.1779786087572575e-02</internalNodes>
          <leafValues>
            3.8403797149658203e-01 -7.3173478245735168e-02</leafValues></_>
        <_>
          <internalNodes>
            0 -1 220 7.9769976437091827e-03</internalNodes>
          <leafValues>
            -1.3295966386795044e-01 2.7170130610466003e-01</leafValues></_>
        <_>
          <internalNodes>
            0 -1 470 5.4589263163506985e-04</internalNodes>
          <leafValues>
            4.0230579674243927e-02 -7.3257046937942505e-01</leafValues></_>
        <_>
          <internalNodes>
            0 -1 355 2.8545260429382324e-03</internalNodes>
          <leafValues>
            4.9139082431793213e-02 -4.8125085234642029e-01</leafValues></_>
        <_>
          <internalNodes>
            0 -1 104 3.0955590773373842e-04</internalNodes>
          <leafValues>
            1.5290246903896332e-01 -1.7667275667190552e-01</leafValues></_>
        <_>
          <internalNodes>
            0 -1 156 -9.3480519717559218e-04</internalNodes>
          <leafValues>
            -4.4877353310585022e-01 6.4066365361213684e-02</leafValues></_>
        <_>
          <internalNodes>
            0 -1 596 -9.2282672994770110e-05</internalNodes>
          <leafValues>
            2.5703048706054688e-01 -1.0741937160491943e-01</leafValues></_>
        <_>
          <internalNodes>
            0 -1 626 -3.6910103517584503e-05</internalNodes>
          <leafValues>
            1.5716578066349030e-01 -1.6813385486602783e-01</leafValues></_>
        <_>
          <internalNodes>
            0 -1 493 -3.2925086561590433e-03</internalNodes>
          <leafValues>
            -5.8287829160690308e-01 4.5409850776195526e-02</leafValues></_>
        <_>
          <internalNodes>
            0 -1 163 -4.2336530896136537e-05</internalNodes>
          <leafValues>
            8.9796543121337891e-02 -2.9982709884643555e-01</leafValues></_>
        <_>
          <internalNodes>
            0 -1 26 -3.4592445939779282e-02</internalNodes>
          <leafValues>
            -3.1169611215591431e-01 9.1030426323413849e-02</leafValues></_>
        <_>
          <internalNodes>
            0 -1 143 -9.7300801426172256e-03</internalNodes>
          <leafValues>
            4.3301615118980408e-01 -7.7868558466434479e-02</leafValues></_>
        <_>
          <internalNodes>
            0 -1 154 8.2365979324094951e-05</internalNodes>
          <leafValues>
            -1.2570644915103912e-01 2.4260489642620087e-01</leafValues></_>
        <_>
          <internalNodes>
            0 -1 101 1.1888418812304735e-03</internalNodes>
          <leafValues>
            -2.9476276040077209e-01 9.8211504518985748e-02</leafValues></_>
        <_>
          <internalNodes>
            0 -1 299 2.0872326567769051e-03</internalNodes>
          <leafValues>
            -1.2891271710395813e-01 2.9147821664810181e-01</leafValues></_>
        <_>
          <internalNodes>
            0 -1 298 -7.9061891883611679e-03</internalNodes>
          <leafValues>
            3.5568606853485107e-01 -7.5644135475158691e-02</leafValues></_>
        <_>
          <internalNodes>
            0 -1 365 -2.1323384717106819e-02</internalNodes>
          <leafValues>
            1.6675518453121185e-01 -1.7759615182876587e-01</leafValues></_>
        <_>
          <internalNodes>
            0 -1 326 2.9674130491912365e-03</internalNodes>
          <leafValues>
            8.2196891307830811e-02 -3.6212679743766785e-01</leafValues></_>
        <_>
          <internalNodes>
            0 -1 341 1.6419500112533569e-02</internalNodes>
          <leafValues>
            -8.6750209331512451e-02 3.6374297738075256e-01</leafValues></_></weakClassifiers></_>
    <!-- stage 12 -->
    <_>
      <maxWeakCount>46</maxWeakCount>
      <stageThreshold>-1.5097874402999878e+00</stageThreshold>
      <weakClassifiers>
        <_>
          <internalNodes>
            0 -1 179 -2.3921489715576172e-02</internalNodes>
          <leafValues>
            -1.5270164608955383e-01 -5.9450000524520874e-01</leafValues></_>
        <_>
          <internalNodes>
            0 -1 382 -4.7029042616486549e-03</internalNodes>
          <leafValues>
            5.4745074361562729e-02 -4.2646747827529907e-01</leafValues></_>
        <_>
          <internalNodes>
            0 -1 18 -1.7021261155605316e-01</internalNodes>
          <leafValues>
            3.1278318166732788e-01 -1.2561406195163727e-01</leafValues></_>
        <_>
          <internalNodes>
            0 -1 139 -2.6149174198508263e-02</internalNodes>
          <leafValues>
            3.2172664999961853e-01 -1.0254392027854919e-01</leafValues></_>
        <_>
          <internalNodes>
            0 -1 424 4.6706655994057655e-03</internalNodes>
          <leafValues>
            -2.2400048375129700e-01 2.0825852453708649e-01</leafValues></_>
        <_>
          <internalNodes>
            0 -1 409 -5.5539272725582123e-03</internalNodes>
          <leafValues>
            -4.7650164365768433e-01 4.0038455277681351e-02</leafValues></_>
        <_>
          <internalNodes>
            0 -1 61 -2.1166785061359406e-01</internalNodes>
          <leafValues>
            3.1098458170890808e-01 -9.7909048199653625e-02</leafValues></_>
        <_>
          <internalNodes>
            0 -1 395 3.6969520151615143e-02</internalNodes>
          <leafValues>
            -7.1483708918094635e-02 7.0388227701187134e-01</leafValues></_>
        <_>
          <internalNodes>
            0 -1 193 -6.2513776356354356e-05</internalNodes>
          <leafValues>
            -2.6755070686340332e-01 1.1503735184669495e-01</leafValues></_>
        <_>
          <internalNodes>
            0 -1 112 1.5724427066743374e-04</internalNodes>
          <leafValues>
            8.6520895361900330e-02 -3.6956670880317688e-01</leafValues></_>
        <_>
          <internalNodes>
            0 -1 77 -5.3263180889189243e-03</internalNodes>
          <leafValues>
            2.9356399178504944e-01 -9.4813480973243713e-02</leafValues></_>
        <_>
          <internalNodes>
            0 -1 537 9.8808872280642390e-05</internalNodes>
          <leafValues>
            -3.5608536005020142e-01 9.3277387320995331e-02</leafValues></_>
        <_>
          <internalNodes>
            0 -1 390 1.4428682625293732e-02</internalNodes>
          <leafValues>
            5.6888595223426819e-02 -5.4693484306335449e-01</leafValues></_>
        <_>
          <internalNodes>
            0 -1 128 -7.9121493035927415e-04</internalNodes>
          <leafValues>
            1.0743211954832077e-01 -2.7265158295631409e-01</leafValues></_>
        <_>
          <internalNodes>
            0 -1 421 -1.3738183677196503e-01</internalNodes>
          <leafValues>
            7.1615374088287354e-01 -5.1668781787157059e-02</leafValues></_>
        <_>
          <internalNodes>
            0 -1 151 -2.0934757776558399e-03</internalNodes>
          <leafValues>
            -6.5350109338760376e-01 5.6726962327957153e-02</leafValues></_>
        <_>
          <internalNodes>
            0 -1 576 1.1494038626551628e-02</internalNodes>
          <leafValues>
            -9.2251390218734741e-02 3.8127580285072327e-01</leafValues></_>
        <_>
          <internalNodes>
            0 -1 407 2.0671136677265167e-02</internalNodes>
          <leafValues>
            -4.2200896143913269e-01 7.1047805249691010e-02</leafValues></_>
        <_>
          <internalNodes>
            0 -1 442 2.2547096014022827e-01</internalNodes>
          <leafValues>
            5.6091200560331345e-02 -4.8086595535278320e-01</leafValues></_>
        <_>
          <internalNodes>
            0 -1 203 -6.3380748033523560e-02</internalNodes>
          <leafValues>
            -6.4920401573181152e-01 3.6526352167129517e-02</leafValues></_>
        <_>
          <internalNodes>
            0 -1 515 5.5584185756742954e-03</internalNodes>
          <leafValues>
            4.8120759427547455e-02 -4.8135015368461609e-01</leafValues></_>
        <_>
          <internalNodes>
            0 -1 559 -4.0916679427027702e-03</internalNodes>
          <leafValues>
            1.6201175749301910e-01 -1.4879634976387024e-01</leafValues></_>
        <_>
          <internalNodes>
            0 -1 578 2.3548183962702751e-03</internalNodes>
          <leafValues>
            2.8078217059373856e-02 -7.8085863590240479e-01</leafValues></_>
        <_>
          <internalNodes>
            0 -1 574 -5.8412393555045128e-03</internalNodes>
          <leafValues>
            1.4372095465660095e-01 -1.8761165440082550e-01</leafValues></_>
        <_>
          <internalNodes>
            0 -1 607 -3.5238117561675608e-05</internalNodes>
          <leafValues>
            2.5235548615455627e-01 -1.0587820410728455e-01</leafValues></_>
        <_>
          <internalNodes>
            0 -1 512 -1.7807386815547943e-02</internalNodes>
          <leafValues>
            3.0613356828689575e-01 -8.4347292780876160e-02</leafValues></_>
        <_>
          <internalNodes>
            0 -1 557 3.7727866583736613e-05</internalNodes>
          <leafValues>
            -2.4408014118671417e-01 1.1747086048126221e-01</leafValues></_>
        <_>
          <internalNodes>
            0 -1 525 2.2869552485644817e-03</internalNodes>
          <leafValues>
            1.1126355826854706e-01 -2.5983771681785583e-01</leafValues></_>
        <_>
          <internalNodes>
            0 -1 321 1.1141189932823181e-01</internalNodes>
          <leafValues>
            -4.6004220843315125e-02 6.7266047000885010e-01</leafValues></_>
        <_>
          <internalNodes>
            0 -1 230 3.2408430706709623e-04</internalNodes>
          <leafValues>
            4.9535267055034637e-02 -5.8120542764663696e-01</leafValues></_>
        <_>
          <internalNodes>
            0 -1 303 -6.5383734181523323e-03</internalNodes>
          <leafValues>
            7.2533205151557922e-02 -3.5042315721511841e-01</leafValues></_>
        <_>
          <internalNodes>
            0 -1 39 -1.2129522860050201e-01</internalNodes>
          <leafValues>
            -1.4563880860805511e-01 1.9974872469902039e-01</leafValues></_>
        <_>
          <internalNodes>
            0 -1 54 -2.9266726970672607e-01</internalNodes>
          <leafValues>
            7.4930614233016968e-01 -4.8600796610116959e-02</leafValues></_>
        <_>
          <internalNodes>
            0 -1 62 1.3506961986422539e-02</internalNodes>
          <leafValues>
            -7.2783865034580231e-02 3.5349878668785095e-01</leafValues></_>
        <_>
          <internalNodes>
            0 -1 487 5.1047885790467262e-04</internalNodes>
          <leafValues>
            4.2718492448329926e-02 -6.8374049663543701e-01</leafValues></_>
        <_>
          <internalNodes>
            0 -1 439 -1.0877145454287529e-02</internalNodes>
          <leafValues>
            2.2294250130653381e-01 -1.3001966476440430e-01</leafValues></_>
        <_>
          <internalNodes>
            0 -1 202 -5.6715385289862752e-04</internalNodes>
          <leafValues>
            -6.8113529682159424e-01 4.0515843778848648e-02</leafValues></_>
        <_>
          <internalNodes>
            0 -1 426 -1.0962520726025105e-02</internalNodes>
          <leafValues>
            1.5650559961795807e-01 -1.7011409997940063e-01</leafValues></_>
        <_>
          <internalNodes>
            0 -1 320 9.7849043086171150e-03</internalNodes>
          <leafValues>
            -7.5732178986072540e-02 4.3255549669265747e-01</leafValues></_>
        <_>
          <internalNodes>
            0 -1 479 -4.3799832928925753e-04</internalNodes>
          <leafValues>
            -3.5513311624526978e-01 8.8137634098529816e-02</leafValues></_>
        <_>
          <internalNodes>
            0 -1 52 4.0231924504041672e-02</internalNodes>
          <leafValues>
            -2.6711162924766541e-01 1.1395400762557983e-01</leafValues></_>
        <_>
          <internalNodes>
            0 -1 174 1.6484165564179420e-02</internalNodes>
          <leafValues>
            -8.7980344891548157e-02 3.5235816240310669e-01</leafValues></_>
        <_>
          <internalNodes>
            0 -1 27 -4.0906704962253571e-03</internalNodes>
          <leafValues>
            6.4489543437957764e-02 -5.1258915662765503e-01</leafValues></_>
        <_>
          <internalNodes>
            0 -1 551 -1.1814195662736893e-02</internalNodes>
          <leafValues>
            2.9952439665794373e-01 -9.9307946860790253e-02</leafValues></_>
        <_>
          <internalNodes>
            0 -1 111 5.1707951352000237e-03</internalNodes>
          <leafValues>
            3.5287257283926010e-02 -7.9354983568191528e-01</leafValues></_>
        <_>
          <internalNodes>
            0 -1 160 8.5607427172362804e-04</internalNodes>
          <leafValues>
            -1.0512026399374008e-01 2.7840712666511536e-01</leafValues></_></weakClassifiers></_>
    <!-- stage 13 -->
    <_>
      <maxWeakCount>48</maxWeakCount>
      <stageThreshold>-1.5304676294326782e+00</stageThreshold>
      <weakClassifiers>
        <_>
          <internalNodes>
            0 -1 231 2.7312610298395157e-02</internalNodes>
          <leafValues>
            -5.9736901521682739e-01 -2.9411764815449715e-02</leafValues></_>
        <_>
          <internalNodes>
            0 -1 234 -1.4851178973913193e-02</internalNodes>
          <leafValues>
            1.8313145637512207e-01 -2.3524492979049683e-01</leafValues></_>
        <_>
          <internalNodes>
            0 -1 51 9.1198948211967945e-04</internalNodes>
          <leafValues>
            -1.8544335663318634e-01 2.1337974071502686e-01</leafValues></_>
        <_>
          <internalNodes>
            0 -1 587 1.9981182413175702e-04</internalNodes>
          <leafValues>
            8.8708549737930298e-02 -3.9996173977851868e-01</leafValues></_>
        <_>
          <internalNodes>
            0 -1 620 -3.2498853397555649e-04</internalNodes>
          <leafValues>
            2.1166914701461792e-01 -1.8272441625595093e-01</leafValues></_>
        <_>
          <internalNodes>
            0 -1 608 6.2838563462719321e-04</internalNodes>
          <leafValues>
            -1.3565398752689362e-01 2.6455199718475342e-01</leafValues></_>
        <_>
          <internalNodes>
            0 -1 523 6.4590442925691605e-03</internalNodes>
          <leafValues>
            -3.1493437290191650e-01 8.7102830410003662e-02</leafValues></_>
        <_>
          <internalNodes>
            0 -1 204 -4.4033038429915905e-03</internalNodes>
          <leafValues>
            -3.5201486945152283e-01 1.1694275587797165e-01</leafValues></_>
        <_>
          <internalNodes>
            0 -1 279 5.7159513235092163e-03</internalNodes>
          <leafValues>
            9.2933982610702515e-02 -3.4199485182762146e-01</leafValues></_>
        <_>
          <internalNodes>
            0 -1 227 -7.3523460887372494e-03</internalNodes>
          <leafValues>
            1.7981317639350891e-01 -1.9747671484947205e-01</leafValues></_>
        <_>
          <internalNodes>
            0 -1 131 2.3396462202072144e-02</internalNodes>
          <leafValues>
            -7.9145208001136780e-02 4.8591756820678711e-01</leafValues></_>
        <_>
          <internalNodes>
            0 -1 391 -4.1085937991738319e-03</internalNodes>
          <leafValues>
            -3.4021756052970886e-01 9.9079199135303497e-02</leafValues></_>
        <_>
          <internalNodes>
            0 -1 617 5.2626142278313637e-03</internalNodes>
          <leafValues>
            3.3293820917606354e-02 -7.7659273147583008e-01</leafValues></_>
        <_>
          <internalNodes>
            0 -1 614 -7.3886010795831680e-03</internalNodes>
          <leafValues>
            1.0830705612897873e-01 -2.5700601935386658e-01</leafValues></_>
        <_>
          <internalNodes>
            0 -1 281 1.4124718308448792e-01</internalNodes>
          <leafValues>
            -7.0250712335109711e-02 5.1595640182495117e-01</leafValues></_>
        <_>
          <internalNodes>
            0 -1 451 3.1739121186546981e-04</internalNodes>
          <leafValues>
            1.8867877125740051e-01 -1.7495511472225189e-01</leafValues></_>
        <_>
          <internalNodes>
            0 -1 446 2.9292119666934013e-02</internalNodes>
          <leafValues>
            -2.9594397544860840e-01 1.0039545595645905e-01</leafValues></_>
        <_>
          <internalNodes>
            0 -1 270 1.3027900457382202e-01</internalNodes>
          <leafValues>
            9.3947574496269226e-02 -3.4987917542457581e-01</leafValues></_>
        <_>
          <internalNodes>
            0 -1 243 -1.5438485890626907e-02</internalNodes>
          <leafValues>
            1.4911073446273804e-01 -1.9090411067008972e-01</leafValues></_>
        <_>
          <internalNodes>
            0 -1 579 7.2559865657240152e-05</internalNodes>
          <leafValues>
            -3.1675940752029419e-01 9.3336142599582672e-02</leafValues></_>
        <_>
          <internalNodes>
            0 -1 206 1.3658531242981553e-03</internalNodes>
          <leafValues>
            -3.1689646840095520e-01 1.0452605038881302e-01</leafValues></_>
        <_>
          <internalNodes>
            0 -1 149 -2.2121113725006580e-03</internalNodes>
          <leafValues>
            3.8488557934761047e-01 -7.9092800617218018e-02</leafValues></_>
        <_>
          <internalNodes>
            0 -1 225 -2.1312208846211433e-03</internalNodes>
          <leafValues>
            -5.3114998340606689e-01 5.1704976707696915e-02</leafValues></_>
        <_>
          <internalNodes>
            0 -1 342 -2.5134429335594177e-02</internalNodes>
          <leafValues>
            2.0018033683300018e-01 -1.3380779325962067e-01</leafValues></_>
        <_>
          <internalNodes>
            0 -1 491 -5.3674681112170219e-04</internalNodes>
          <leafValues>
            -7.1991443634033203e-01 3.9134126156568527e-02</leafValues></_>
        <_>
          <internalNodes>
            0 -1 347 5.1798567175865173e-02</internalNodes>
          <leafValues>
            -8.7950326502323151e-02 3.3799281716346741e-01</leafValues></_>
        <_>
          <internalNodes>
            0 -1 368 -2.8686758596450090e-03</internalNodes>
          <leafValues>
            2.0694419741630554e-01 -1.3722206652164459e-01</leafValues></_>
        <_>
          <internalNodes>
            0 -1 166 -9.7797403577715158e-04</internalNodes>
          <leafValues>
            1.2210966646671295e-01 -2.7880844473838806e-01</leafValues></_>
        <_>
          <internalNodes>
            0 -1 509 -8.7312317918986082e-04</internalNodes>
          <leafValues>
            -3.5252290964126587e-01 7.5993761420249939e-02</leafValues></_>
        <_>
          <internalNodes>
            0 -1 338 -6.0294857248663902e-03</internalNodes>
          <leafValues>
            2.3886275291442871e-01 -1.0812471061944962e-01</leafValues></_>
        <_>
          <internalNodes>
            0 -1 533 -2.1659304911736399e-04</internalNodes>
          <leafValues>
            1.1423180252313614e-01 -2.3896417021751404e-01</leafValues></_>
        <_>
          <internalNodes>
            0 -1 233 1.3069145381450653e-02</internalNodes>
          <leafValues>
            -1.0411477833986282e-01 3.2060974836349487e-01</leafValues></_>
        <_>
          <internalNodes>
            0 -1 55 -1.7444784753024578e-03</internalNodes>
          <leafValues>
            1.4019872248172760e-01 -2.3545485734939575e-01</leafValues></_>
        <_>
          <internalNodes>
            0 -1 161 -1.4303537318482995e-04</internalNodes>
          <leafValues>
            -3.2123705744743347e-01 8.2366108894348145e-02</leafValues></_>
        <_>
          <internalNodes>
            0 -1 543 4.4333972036838531e-02</internalNodes>
          <leafValues>
            3.3302832394838333e-02 -7.1667003631591797e-01</leafValues></_>
        <_>
          <internalNodes>
            0 -1 155 4.6664237743243575e-04</internalNodes>
          <leafValues>
            -3.0082106590270996e-01 8.1104606389999390e-02</leafValues></_>
        <_>
          <internalNodes>
            0 -1 153 1.3750515878200531e-02</internalNodes>
          <leafValues>
            -1.0184451192617416e-01 2.9241016507148743e-01</leafValues></_>
        <_>
          <internalNodes>
            0 -1 629 3.7628202699124813e-04</internalNodes>
          <leafValues>
            6.4306989312171936e-02 -4.0563908219337463e-01</leafValues></_>
        <_>
          <internalNodes>
            0 -1 401 -3.4895245917141438e-03</internalNodes>
          <leafValues>
            1.6676564514636993e-01 -1.6824170947074890e-01</leafValues></_>
        <_>
          <internalNodes>
            0 -1 507 6.1693894676864147e-03</internalNodes>
          <leafValues>
            1.1233839392662048e-01 -2.5893363356590271e-01</leafValues></_>
        <_>
          <internalNodes>
            0 -1 7 1.0644281283020973e-02</internalNodes>
          <leafValues>
            2.9550371691584587e-02 -7.4589782953262329e-01</leafValues></_>
        <_>
          <internalNodes>
            0 -1 236 7.5815883465111256e-03</internalNodes>
          <leafValues>
            -1.0893477499485016e-01 2.3774766921997070e-01</leafValues></_>
        <_>
          <internalNodes>
            0 -1 433 1.6006167279556394e-03</internalNodes>
          <leafValues>
            1.7120173573493958e-01 -1.8892128765583038e-01</leafValues></_>
        <_>
          <internalNodes>
            0 -1 232 -9.7864195704460144e-02</internalNodes>
          <leafValues>
            -3.3668151497840881e-01 9.4622209668159485e-02</leafValues></_>
        <_>
          <internalNodes>
            0 -1 358 -2.6557078957557678e-01</internalNodes>
          <leafValues>
            6.9639956951141357e-01 -4.3472938239574432e-02</leafValues></_>
        <_>
          <internalNodes>
            0 -1 532 -5.9837143635377288e-04</internalNodes>
          <leafValues>
            -2.1453209221363068e-01 1.4538225531578064e-01</leafValues></_>
        <_>
          <internalNodes>
            0 -1 392 -1.2596739456057549e-02</internalNodes>
          <leafValues>
            1.4373765885829926e-01 -2.1253789961338043e-01</leafValues></_>
        <_>
          <internalNodes>
            0 -1 210 -8.0677133519202471e-04</internalNodes>
          <leafValues>
            1.3494324684143066e-01 -2.1638692915439606e-01</leafValues></_></weakClassifiers></_>
    <!-- stage 14 -->
    <_>
      <maxWeakCount>49</maxWeakCount>
      <stageThreshold>-1.5291637182235718e+00</stageThreshold>
      <weakClassifiers>
        <_>
          <internalNodes>
            0 -1 284 1.8116230145096779e-02</internalNodes>
          <leafValues>
            -6.2548261880874634e-01 -1.8473652005195618e-01</leafValues></_>
        <_>
          <internalNodes>
            0 -1 213 -8.5560530424118042e-03</internalNodes>
          <leafValues>
            3.5116988420486450e-01 -1.4971160888671875e-01</leafValues></_>
        <_>
          <internalNodes>
            0 -1 2 -1.2679554056376219e-03</internalNodes>
          <leafValues>
            -4.5203551650047302e-01 8.2847498357295990e-02</leafValues></_>
        <_>
          <internalNodes>
            0 -1 22 5.9387035435065627e-04</internalNodes>
          <leafValues>
            9.6164196729660034e-02 -6.0750341415405273e-01</leafValues></_>
        <_>
          <internalNodes>
            0 -1 332 1.9706836901605129e-03</internalNodes>
          <leafValues>
            2.0623860880732536e-02 -6.6675662994384766e-01</leafValues></_>
        <_>
          <internalNodes>
            0 -1 465 9.2845559120178223e-03</internalNodes>
          <leafValues>
            -4.4275867938995361e-01 8.2938596606254578e-02</leafValues></_>
        <_>
          <internalNodes>
            0 -1 548 1.7784717492759228e-03</internalNodes>
          <leafValues>
            -1.1106962710618973e-01 3.0892238020896912e-01</leafValues></_>
        <_>
          <internalNodes>
            0 -1 622 -6.9880122318863869e-03</internalNodes>
          <leafValues>
            1.3843190670013428e-01 -2.1723423898220062e-01</leafValues></_>
        <_>
          <internalNodes>
            0 -1 440 -3.0304925516247749e-02</internalNodes>
          <leafValues>
            2.2888165712356567e-01 -1.1605376750230789e-01</leafValues></_>
        <_>
          <internalNodes>
            0 -1 178 -5.0805313512682915e-03</internalNodes>
          <leafValues>
            1.8763731420040131e-01 -2.1052442491054535e-01</leafValues></_>
        <_>
          <internalNodes>
            0 -1 71 -3.3952035009860992e-02</internalNodes>
          <leafValues>
            2.4969792366027832e-01 -1.2138851732015610e-01</leafValues></_>
        <_>
          <internalNodes>
            0 -1 180 -1.1303235078230500e-04</internalNodes>
          <leafValues>
            -3.9634126424789429e-01 7.4302330613136292e-02</leafValues></_>
        <_>
          <internalNodes>
            0 -1 184 7.5522055849432945e-03</internalNodes>
          <leafValues>
            -9.7212150692939758e-02 3.3891579508781433e-01</leafValues></_>
        <_>
          <internalNodes>
            0 -1 58 4.2792600393295288e-01</internalNodes>
          <leafValues>
            -4.9072045832872391e-02 5.8189606666564941e-01</leafValues></_>
        <_>
          <internalNodes>
            0 -1 40 4.2520470917224884e-02</internalNodes>
          <leafValues>
            -5.9138733893632889e-02 4.8650839924812317e-01</leafValues></_>
        <_>
          <internalNodes>
            0 -1 517 -3.2616434618830681e-03</internalNodes>
          <leafValues>
            1.7146478593349457e-01 -2.3386622965335846e-01</leafValues></_>
        <_>
          <internalNodes>
            0 -1 175 4.7813981771469116e-02</internalNodes>
          <leafValues>
            -9.4859823584556580e-02 3.2729154825210571e-01</leafValues></_>
        <_>
          <internalNodes>
            0 -1 90 9.3236211687326431e-03</internalNodes>
          <leafValues>
            1.0392268747091293e-01 -2.9466354846954346e-01</leafValues></_>
        <_>
          <internalNodes>
            0 -1 328 9.5139688346534967e-04</internalNodes>
          <leafValues>
            -1.5216250717639923e-01 2.2583186626434326e-01</leafValues></_>
        <_>
          <internalNodes>
            0 -1 351 -6.8379174917936325e-03</internalNodes>
          <leafValues>
            1.0017506778240204e-01 -3.4465840458869934e-01</leafValues></_>
        <_>
          <internalNodes>
            0 -1 581 -4.4386298395693302e-04</internalNodes>
          <leafValues>
            -6.3206171989440918e-01 4.2911693453788757e-02</leafValues></_>
        <_>
          <internalNodes>
            0 -1 381 -7.9552941024303436e-03</internalNodes>
          <leafValues>
            -4.0338876843452454e-01 7.3539994657039642e-02</leafValues></_>
        <_>
          <internalNodes>
            0 -1 536 -1.5449170023202896e-03</internalNodes>
          <leafValues>
            -4.8479276895523071e-01 6.0100685805082321e-02</leafValues></_>
        <_>
          <internalNodes>
            0 -1 552 1.0858644964173436e-04</internalNodes>
          <leafValues>
            9.9365308880805969e-02 -3.2819163799285889e-01</leafValues></_>
        <_>
          <internalNodes>
            0 -1 21 -2.3129294277168810e-04</internalNodes>
          <leafValues>
            1.3601787388324738e-01 -2.0880867540836334e-01</leafValues></_>
        <_>
          <internalNodes>
            0 -1 361 1.2727547436952591e-04</internalNodes>
          <leafValues>
            9.5672339200973511e-02 -2.6924863457679749e-01</leafValues></_>
        <_>
          <internalNodes>
            0 -1 45 2.1032225340604782e-03</internalNodes>
          <leafValues>
            5.0511810928583145e-02 -5.1386958360671997e-01</leafValues></_>
        <_>
          <internalNodes>
            0 -1 11 -5.0286926329135895e-02</internalNodes>
          <leafValues>
            -2.9456871747970581e-01 9.4909094274044037e-02</leafValues></_>
        <_>
          <internalNodes>
            0 -1 460 1.7163272423204035e-04</internalNodes>
          <leafValues>
            1.4749163389205933e-01 -1.9216828048229218e-01</leafValues></_>
        <_>
          <internalNodes>
            0 -1 508 6.6611766815185547e-02</internalNodes>
          <leafValues>
            1.0874976962804794e-01 -2.7183046936988831e-01</leafValues></_>
        <_>
          <internalNodes>
            0 -1 394 -1.7644047737121582e-02</internalNodes>
          <leafValues>
            1.5741647779941559e-01 -1.7922864854335785e-01</leafValues></_>
        <_>
          <internalNodes>
            0 -1 344 1.1790084652602673e-02</internalNodes>
          <leafValues>
            -8.9335180819034576e-02 3.7406748533248901e-01</leafValues></_>
        <_>
          <internalNodes>
            0 -1 106 -1.0439206380397081e-03</internalNodes>
          <leafValues>
            2.7060765027999878e-01 -1.0389927029609680e-01</leafValues></_>
        <_>
          <internalNodes>
            0 -1 157 1.0405776556581259e-03</internalNodes>
          <leafValues>
            4.4669322669506073e-02 -6.7840754985809326e-01</leafValues></_>
        <_>
          <internalNodes>
            0 -1 427 6.6956379450857639e-03</internalNodes>
          <leafValues>
            -4.1625237464904785e-01 6.3070766627788544e-02</leafValues></_>
        <_>
          <internalNodes>
            0 -1 378 -2.2930540144443512e-02</internalNodes>
          <leafValues>
            3.0247998237609863e-01 -1.2199206650257111e-01</leafValues></_>
        <_>
          <internalNodes>
            0 -1 221 2.9080355307087302e-04</internalNodes>
          <leafValues>
            1.6382217407226563e-01 -1.9045621156692505e-01</leafValues></_>
        <_>
          <internalNodes>
            0 -1 630 4.6761771664023399e-03</internalNodes>
          <leafValues>
            3.9477687329053879e-02 -7.4727207422256470e-01</leafValues></_>
        <_>
          <internalNodes>
            0 -1 159 5.1603699102997780e-04</internalNodes>
          <leafValues>
            4.3491043150424957e-02 -5.0598281621932983e-01</leafValues></_>
        <_>
          <internalNodes>
            0 -1 497 -1.0978792607784271e-01</internalNodes>
          <leafValues>
            7.9496133327484131e-01 -4.3933253735303879e-02</leafValues></_>
        <_>
          <internalNodes>
            0 -1 573 1.8226934596896172e-02</internalNodes>
          <leafValues>
            -3.3579027652740479e-01 8.2770556211471558e-02</leafValues></_>
        <_>
          <internalNodes>
            0 -1 88 5.7366129476577044e-04</internalNodes>
          <leafValues>
            1.1106879264116287e-01 -2.4681536853313446e-01</leafValues></_>
        <_>
          <internalNodes>
            0 -1 242 -9.9772512912750244e-02</internalNodes>
          <leafValues>
            2.5901389122009277e-01 -1.1267311871051788e-01</leafValues></_>
        <_>
          <internalNodes>
            0 -1 140 -1.7688345164060593e-02</internalNodes>
          <leafValues>
            2.4800503253936768e-01 -1.4331431686878204e-01</leafValues></_>
        <_>
          <internalNodes>
            0 -1 375 -1.6978630423545837e-01</internalNodes>
          <leafValues>
            -7.4121105670928955e-01 3.5023670643568039e-02</leafValues></_>
        <_>
          <internalNodes>
            0 -1 78 -1.6895506531000137e-02</internalNodes>
          <leafValues>
            3.0395543575286865e-01 -9.7070515155792236e-02</leafValues></_>
        <_>
          <internalNodes>
            0 -1 1 9.8765874281525612e-04</internalNodes>
          <leafValues>
            -9.9170386791229248e-02 2.6963981986045837e-01</leafValues></_>
        <_>
          <internalNodes>
            0 -1 216 -1.6915917512960732e-04</internalNodes>
          <leafValues>
            -3.5169622302055359e-01 8.4787733852863312e-02</leafValues></_>
        <_>
          <internalNodes>
            0 -1 125 -6.5498195588588715e-02</internalNodes>
          <leafValues>
            2.5087222456932068e-01 -1.2611208856105804e-01</leafValues></_></weakClassifiers></_>
    <!-- stage 15 -->
    <_>
      <maxWeakCount>52</maxWeakCount>
      <stageThreshold>-1.4551316499710083e+00</stageThreshold>
      <weakClassifiers>
        <_>
          <internalNodes>
            0 -1 363 1.9366696476936340e-01</internalNodes>
          <leafValues>
            -5.2481853961944580e-01 5.6666666269302368e-01</leafValues></_>
        <_>
          <internalNodes>
            0 -1 6 1.4052068814635277e-02</internalNodes>
          <leafValues>
            -1.9243676960468292e-01 3.0127310752868652e-01</leafValues></_>
        <_>
          <internalNodes>
            0 -1 306 -2.1899804472923279e-02</internalNodes>
          <leafValues>
            1.2901055812835693e-01 -2.7881735563278198e-01</leafValues></_>
        <_>
          <internalNodes>
            0 -1 181 -3.2440856099128723e-01</internalNodes>
          <leafValues>
            -6.1078214645385742e-01 4.8013437539339066e-02</leafValues></_>
        <_>
          <internalNodes>
            0 -1 92 -2.6986334472894669e-02</internalNodes>
          <leafValues>
            1.4162576198577881e-01 -2.2506704926490784e-01</leafValues></_>
        <_>
          <internalNodes>
            0 -1 348 -2.2657427936792374e-02</internalNodes>
          <leafValues>
            2.4842353165149689e-01 -1.2657177448272705e-01</leafValues></_>
        <_>
          <internalNodes>
            0 -1 264 1.5320807870011777e-04</internalNodes>
          <leafValues>
            -2.8560999035835266e-01 1.1702283471822739e-01</leafValues></_>
        <_>
          <internalNodes>
            0 -1 589 6.5150539739988744e-05</internalNodes>
          <leafValues>
            -2.4083122611045837e-01 1.2978401780128479e-01</leafValues></_>
        <_>
          <internalNodes>
            0 -1 123 -1.1285238724667579e-04</internalNodes>
          <leafValues>
            1.4085239171981812e-01 -2.1764190495014191e-01</leafValues></_>
        <_>
          <internalNodes>
            0 -1 315 1.2136180885136127e-03</internalNodes>
          <leafValues>
            1.1452037096023560e-01 -2.7114033699035645e-01</leafValues></_>
        <_>
          <internalNodes>
            0 -1 214 6.2297796830534935e-04</internalNodes>
          <leafValues>
            1.0685507953166962e-01 -3.2441303133964539e-01</leafValues></_>
        <_>
          <internalNodes>
            0 -1 343 -5.8065829798579216e-03</internalNodes>
          <leafValues>
            -3.1513175368309021e-01 9.1305352747440338e-02</leafValues></_>
        <_>
          <internalNodes>
            0 -1 93 6.2767444178462029e-03</internalNodes>
          <leafValues>
            6.7838087677955627e-02 -4.4141489267349243e-01</leafValues></_>
        <_>
          <internalNodes>
            0 -1 448 -2.2666435688734055e-03</internalNodes>
          <leafValues>
            -6.0382384061813354e-01 3.8291957229375839e-02</leafValues></_>
        <_>
          <internalNodes>
            0 -1 201 -5.4764850065112114e-03</internalNodes>
          <leafValues>
            1.2290152907371521e-01 -2.2936251759529114e-01</leafValues></_>
        <_>
          <internalNodes>
            0 -1 241 -1.4186787605285645e-01</internalNodes>
          <leafValues>
            6.5974831581115723e-01 -5.3932230919599533e-02</leafValues></_>
        <_>
          <internalNodes>
            0 -1 436 -2.7059536427259445e-02</internalNodes>
          <leafValues>
            4.4976735115051270e-01 -7.8303255140781403e-02</leafValues></_>
        <_>
          <internalNodes>
            0 -1 115 5.3034074604511261e-02</internalNodes>
          <leafValues>
            4.4001735746860504e-02 -6.7207616567611694e-01</leafValues></_>
        <_>
          <internalNodes>
            0 -1 53 -2.4416975677013397e-02</internalNodes>
          <leafValues>
            1.9286438822746277e-01 -1.5012535452842712e-01</leafValues></_>
        <_>
          <internalNodes>
            0 -1 177 8.0127661931328475e-05</internalNodes>
          <leafValues>
            -2.6174974441528320e-01 1.1055725812911987e-01</leafValues></_>
        <_>
          <internalNodes>
            0 -1 219 5.1154782995581627e-03</internalNodes>
          <leafValues>
            -1.0219256579875946e-01 2.4343638122081757e-01</leafValues></_>
        <_>
          <internalNodes>
            0 -1 148 1.1515681399032474e-04</internalNodes>
          <leafValues>
            1.2572658061981201e-01 -2.1509891748428345e-01</leafValues></_>
        <_>
          <internalNodes>
            0 -1 253 -4.8953317105770111e-02</internalNodes>
          <leafValues>
            2.5128126144409180e-01 -1.0534353554248810e-01</leafValues></_>
        <_>
          <internalNodes>
            0 -1 249 -2.4754742160439491e-02</internalNodes>
          <leafValues>
            -1.6857169568538666e-01 1.8581679463386536e-01</leafValues></_>
        <_>
          <internalNodes>
            0 -1 498 -3.3488792832940817e-03</internalNodes>
          <leafValues>
            -4.2311567068099976e-01 5.6196637451648712e-02</leafValues></_>
        <_>
          <internalNodes>
            0 -1 499 3.8870293647050858e-02</internalNodes>
          <leafValues>
            1.0071282833814621e-01 -2.6196092367172241e-01</leafValues></_>
        <_>
          <internalNodes>
            0 -1 302 -9.3552675098180771e-03</internalNodes>
          <leafValues>
            9.1484680771827698e-02 -2.5969204306602478e-01</leafValues></_>
        <_>
          <internalNodes>
            0 -1 459 -1.5687528997659683e-02</internalNodes>
          <leafValues>
            3.8065859675407410e-01 -7.2721354663372040e-02</leafValues></_>
        <_>
          <internalNodes>
            0 -1 238 1.5625066589564085e-03</internalNodes>
          <leafValues>
            6.9509014487266541e-02 -3.6817166209220886e-01</leafValues></_>
        <_>
          <internalNodes>
            0 -1 34 7.8341260552406311e-02</internalNodes>
          <leafValues>
            -5.7618524879217148e-02 5.2064716815948486e-01</leafValues></_>
        <_>
          <internalNodes>
            0 -1 393 8.2083875313401222e-03</internalNodes>
          <leafValues>
            -7.1125239133834839e-02 3.4066715836524963e-01</leafValues></_>
        <_>
          <internalNodes>
            0 -1 441 -3.2599978148937225e-03</internalNodes>
          <leafValues>
            -6.0725325345993042e-01 4.2999107390642166e-02</leafValues></_>
        <_>
          <internalNodes>
            0 -1 513 -1.0140560567378998e-02</internalNodes>
          <leafValues>
            -6.3844478130340576e-01 3.5095673054456711e-02</leafValues></_>
        <_>
          <internalNodes>
            0 -1 66 -1.1428575962781906e-02</internalNodes>
          <leafValues>
            3.1524989008903503e-01 -8.6325690150260925e-02</leafValues></_>
        <_>
          <internalNodes>
            0 -1 30 6.0578860575333238e-04</internalNodes>
          <leafValues>
            3.4855842590332031e-02 -7.5790244340896606e-01</leafValues></_>
        <_>
          <internalNodes>
            0 -1 33 2.8776316903531551e-03</internalNodes>
          <leafValues>
            2.4972366169095039e-02 -8.2847028970718384e-01</leafValues></_>
        <_>
          <internalNodes>
            0 -1 621 -6.4353679772466421e-04</internalNodes>
          <leafValues>
            1.0883883386850357e-01 -2.0403937995433807e-01</leafValues></_>
        <_>
          <internalNodes>
            0 -1 603 -1.9640629761852324e-04</internalNodes>
          <leafValues>
            -3.5324877500534058e-01 6.2143966555595398e-02</leafValues></_>
        <_>
          <internalNodes>
            0 -1 129 2.2292557358741760e-01</internalNodes>
          <leafValues>
            3.0522989109158516e-02 -6.8707287311553955e-01</leafValues></_>
        <_>
          <internalNodes>
            0 -1 444 3.9753109216690063e-02</internalNodes>
          <leafValues>
            7.9996496438980103e-02 -3.0339702963829041e-01</leafValues></_>
        <_>
          <internalNodes>
            0 -1 494 3.5764914937317371e-03</internalNodes>
          <leafValues>
            -1.0626704990863800e-01 2.2007296979427338e-01</leafValues></_>
        <_>
          <internalNodes>
            0 -1 322 -6.8145714700222015e-02</internalNodes>
          <leafValues>
            2.4824108183383942e-01 -9.3257710337638855e-02</leafValues></_>
        <_>
          <internalNodes>
            0 -1 35 2.6846444606781006e-01</internalNodes>
          <leafValues>
            -2.6836782693862915e-01 9.7069434821605682e-02</leafValues></_>
        <_>
          <internalNodes>
            0 -1 387 -1.9206893444061279e-01</internalNodes>
          <leafValues>
            7.8200989961624146e-01 -3.9825588464736938e-02</leafValues></_>
        <_>
          <internalNodes>
            0 -1 373 -1.5755208209156990e-02</internalNodes>
          <leafValues>
            1.9527937471866608e-01 -1.3786557316780090e-01</leafValues></_>
        <_>
          <internalNodes>
            0 -1 260 -1.0737966746091843e-02</internalNodes>
          <leafValues>
            2.7952128648757935e-01 -9.8181277513504028e-02</leafValues></_>
        <_>
          <internalNodes>
            0 -1 422 1.9046806846745312e-04</internalNodes>
          <leafValues>
            6.5434843301773071e-02 -4.0298810601234436e-01</leafValues></_>
        <_>
          <internalNodes>
            0 -1 109 -2.8293998911976814e-03</internalNodes>
          <leafValues>
            -8.1220459938049316e-01 2.7179161086678505e-02</leafValues></_>
        <_>
          <internalNodes>
            0 -1 545 8.0845318734645844e-03</internalNodes>
          <leafValues>
            -8.8405810296535492e-02 2.8029194474220276e-01</leafValues></_>
        <_>
          <internalNodes>
            0 -1 524 3.7007723003625870e-03</internalNodes>
          <leafValues>
            -2.9458039999008179e-01 8.4331147372722626e-02</leafValues></_>
        <_>
          <internalNodes>
            0 -1 304 5.4401401430368423e-03</internalNodes>
          <leafValues>
            1.4768019318580627e-01 -1.9107440114021301e-01</leafValues></_>
        <_>
          <internalNodes>
            0 -1 208 -3.4741945564746857e-02</internalNodes>
          <leafValues>
            1.3061749935150146e-01 -2.0344948768615723e-01</leafValues></_></weakClassifiers></_>
    <!-- stage 16 -->
    <_>
      <maxWeakCount>52</maxWeakCount>
      <stageThreshold>-1.4822039604187012e+00</stageThreshold>
      <weakClassifiers>
        <_>
          <internalNodes>
            0 -1 285 1.7273485660552979e-02</internalNodes>
          <leafValues>
            -6.0454982519149780e-01 -6.5502181649208069e-02</leafValues></_>
        <_>
          <internalNodes>
            0 -1 237 9.9887326359748840e-03</internalNodes>
          <leafValues>
            -2.0455214381217957e-01 2.6626762747764587e-01</leafValues></_>
        <_>
          <internalNodes>
            0 -1 591 2.0507451146841049e-02</internalNodes>
          <leafValues>
            -5.9912893921136856e-02 5.4072159528732300e-01</leafValues></_>
        <_>
          <internalNodes>
            0 -1 379 6.3751917332410812e-04</internalNodes>
          <leafValues>
            -1.2957082688808441e-01 2.2351132333278656e-01</leafValues></_>
        <_>
          <internalNodes>
            0 -1 611 -6.1734358314424753e-04</internalNodes>
          <leafValues>
            -7.4970376491546631e-01 3.7341896444559097e-02</leafValues></_>
        <_>
          <internalNodes>
            0 -1 70 7.6989061199128628e-04</internalNodes>
          <leafValues>
            -2.3837542533874512e-01 1.1104962974786758e-01</leafValues></_>
        <_>
          <internalNodes>
            0 -1 141 -2.1338048391044140e-03</internalNodes>
          <leafValues>
            4.4555819034576416e-01 -4.7975961118936539e-02</leafValues></_>
        <_>
          <internalNodes>
            0 -1 99 1.8758532823994756e-03</internalNodes>
          <leafValues>
            -2.2067859768867493e-01 1.4842969179153442e-01</leafValues></_>
        <_>
          <internalNodes>
            0 -1 615 -3.2763131457613781e-05</internalNodes>
          <leafValues>
            1.1644458025693893e-01 -2.2784312069416046e-01</leafValues></_>
        <_>
          <internalNodes>
            0 -1 618 5.1777373300865293e-04</internalNodes>
          <leafValues>
            9.9988155066967010e-02 -4.0662652254104614e-01</leafValues></_>
        <_>
          <internalNodes>
            0 -1 323 9.1838266234844923e-04</internalNodes>
          <leafValues>
            -2.7973052859306335e-01 9.6493765711784363e-02</leafValues></_>
        <_>
          <internalNodes>
            0 -1 134 5.7486917823553085e-02</internalNodes>
          <leafValues>
            -6.5275050699710846e-02 4.3968999385833740e-01</leafValues></_>
        <_>
          <internalNodes>
            0 -1 290 -1.2530023232102394e-02</internalNodes>
          <leafValues>
            1.6633063554763794e-01 -1.7603085935115814e-01</leafValues></_>
        <_>
          <internalNodes>
            0 -1 437 3.2358661293983459e-02</internalNodes>
          <leafValues>
            -1.2775491178035736e-01 2.5692260265350342e-01</leafValues></_>
        <_>
          <internalNodes>
            0 -1 568 3.1000527087599039e-04</internalNodes>
          <leafValues>
            1.5403908491134644e-01 -2.1754913032054901e-01</leafValues></_>
        <_>
          <internalNodes>
            0 -1 633 6.1886031180620193e-03</internalNodes>
          <leafValues>
            3.1639743596315384e-02 -9.1167902946472168e-01</leafValues></_>
        <_>
          <internalNodes>
            0 -1 632 4.8258667811751366e-03</internalNodes>
          <leafValues>
            2.0077828317880630e-02 -7.9575240612030029e-01</leafValues></_>
        <_>
          <internalNodes>
            0 -1 250 -2.0844761282205582e-02</internalNodes>
          <leafValues>
            -9.0119349956512451e-01 1.9445292651653290e-02</leafValues></_>
        <_>
          <internalNodes>
            0 -1 531 7.8836958855390549e-03</internalNodes>
          <leafValues>
            -3.7440988421440125e-01 6.4867004752159119e-02</leafValues></_>
        <_>
          <internalNodes>
            0 -1 588 -1.5829048352316022e-03</internalNodes>
