<?xml version="1.0"?>
<opencv_storage>
<cascade>
  <stageType>BOOST</stageType>
  <featureType>HAAR</featureType>
  <height>24</height>
  <width>24</width>
  <stageParams>
    <boostType>GAB</boostType>
    <minHitRate>9.9500000476837158e-01</minHitRate>
    <maxFalseAlarm>5.0000000000000000e-01</maxFalseAlarm>
    <weightTrimRate>9.4999998807907104e-01</weightTrimRate>
    <maxDepth>1</maxDepth>
    <maxWeakCount>100</maxWeakCount></stageParams>
  <featureParams>
    <maxCatCount>0</maxCatCount>
    <featSize>1</featSize>
    <mode>BASIC</mode></featureParams>
  <stageNum>15</stageNum>
  <stages>
    <!-- stage 0 -->
    <_>
      <maxWeakCount>2</maxWeakCount>
      <stageThreshold>-3.5575601458549500e-01</stageThreshold>
      <weakClassifiers>
        <_>
          <internalNodes>
            0 -1 3 3.2235510647296906e-02</internalNodes>
          <leafValues>
            -9.6669310331344604e-01 5.6260436773300171e-01</leafValues></_>
        <_>
          <internalNodes>
            0 -1 29 -9.2621427029371262e-03</internalNodes>
          <leafValues>
            6.1093711853027344e-01 -9.1193842887878418e-01</leafValues></_></weakClassifiers></_>
    <!-- stage 1 -->
    <_>
      <maxWeakCount>2</maxWeakCount>
      <stageThreshold>-5.3695565462112427e-01</stageThreshold>
      <weakClassifiers>
        <_>
          <internalNodes>
            0 -1 24 2.8680421411991119e-02</internalNodes>
          <leafValues>
            -9.3375396728515625e-01 5.1013511419296265e-01</leafValues></_>
        <_>
          <internalNodes>
            0 -1 1 3.4604352712631226e-01</internalNodes>
          <leafValues>
            -9.6863377094268799e-01 3.9679828286170959e-01</leafValues></_></weakClassifiers></_>
    <!-- stage 2 -->
    <_>
      <maxWeakCount>3</maxWeakCount>
      <stageThreshold>-1.4430227279663086e+00</stageThreshold>
      <weakClassifiers>
        <_>
          <internalNodes>
            0 -1 10 1.0965229570865631e-01</internalNodes>
          <leafValues>
            -8.6966294050216675e-01 5.3142857551574707e-01</leafValues></_>
        <_>
          <internalNodes>
            0 -1 60 3.8326524198055267e-02</internalNodes>
          <leafValues>
            -8.4933233261108398e-01 3.6148843169212341e-01</leafValues></_>
        <_>
          <internalNodes>
            0 -1 27 4.4519628863781691e-04</internalNodes>
          <leafValues>
            2.7597248554229736e-01 -9.7466969490051270e-01</leafValues></_></weakClassifiers></_>
    <!-- stage 3 -->
    <_>
      <maxWeakCount>2</maxWeakCount>
      <stageThreshold>-4.7668570280075073e-01</stageThreshold>
      <weakClassifiers>
        <_>
          <internalNodes>
            0 -1 2 2.1366264671087265e-02</internalNodes>
          <leafValues>
            -8.1304347515106201e-01 5.0000000000000000e-01</leafValues></_>
        <_>
          <internalNodes>
            0 -1 9 3.3073765039443970e-01</internalNodes>
          <leafValues>
            -9.3094867467880249e-01 3.3635777235031128e-01</leafValues></_></weakClassifiers></_>
    <!-- stage 4 -->
    <_>
      <maxWeakCount>6</maxWeakCount>
      <stageThreshold>-2.2617294788360596e+00</stageThreshold>
      <weakClassifiers>
        <_>
          <internalNodes>
            0 -1 55 1.7197050154209137e-02</internalNodes>
          <leafValues>
            -7.9341316223144531e-01 3.3969464898109436e-01</leafValues></_>
        <_>
          <internalNodes>
            0 -1 16 1.3714671134948730e-01</internalNodes>
          <leafValues>
            -8.9923751354217529e-01 3.4403777122497559e-01</leafValues></_>
        <_>
          <internalNodes>
            0 -1 37 9.9758245050907135e-04</internalNodes>
          <leafValues>
            2.8835853934288025e-01 -8.7843900918960571e-01</leafValues></_>
        <_>
          <internalNodes>
            0 -1 26 1.0237576439976692e-02</internalNodes>
          <leafValues>
            -7.0784378051757813e-01 4.8027884960174561e-01</leafValues></_>
        <_>
          <internalNodes>
            0 -1 63 -3.6915871314704418e-03</internalNodes>
          <leafValues>
            5.4419142007827759e-01 -5.6082284450531006e-01</leafValues></_>
        <_>
          <internalNodes>
            0 -1 4 9.2503242194652557e-02</internalNodes>
          <leafValues>
            -8.2562458515167236e-01 3.8990420103073120e-01</leafValues></_></weakClassifiers></_>
    <!-- stage 5 -->
    <_>
      <maxWeakCount>4</maxWeakCount>
      <stageThreshold>-1.0040512084960938e+00</stageThreshold>
      <weakClassifiers>
        <_>
          <internalNodes>
            0 -1 42 -4.2063504457473755e-02</internalNodes>
          <leafValues>
            3.1046929955482483e-01 -8.0704438686370850e-01</leafValues></_>
        <_>
          <internalNodes>
            0 -1 47 1.2983441352844238e-02</internalNodes>
          <leafValues>
            -7.1455991268157959e-01 4.1421696543693542e-01</leafValues></_>
        <_>
          <internalNodes>
            0 -1 45 6.2463269568979740e-04</internalNodes>
          <leafValues>
            2.2884197533130646e-01 -1.</leafValues></_>
        <_>
          <internalNodes>
            0 -1 23 5.4996169637888670e-04</internalNodes>
          <leafValues>
            -7.4999803304672241e-01 2.8871116042137146e-01</leafValues></_></weakClassifiers></_>
    <!-- stage 6 -->
    <_>
      <maxWeakCount>3</maxWeakCount>
      <stageThreshold>-1.1703104972839355e+00</stageThreshold>
      <weakClassifiers>
        <_>
          <internalNodes>
            0 -1 17 -2.1596509963274002e-02</internalNodes>
          <leafValues>
            1.8324607610702515e-01 -7.6689976453781128e-01</leafValues></_>
        <_>
          <internalNodes>
            0 -1 38 4.8853373154997826e-03</internalNodes>
          <leafValues>
            -8.4381556510925293e-01 2.5246670842170715e-01</leafValues></_>
        <_>
          <internalNodes>
            0 -1 36 2.7188129723072052e-02</internalNodes>
          <leafValues>
            -6.5587741136550903e-01 4.0659651160240173e-01</leafValues></_></weakClassifiers></_>
    <!-- stage 7 -->
    <_>
      <maxWeakCount>6</maxWeakCount>
      <stageThreshold>-1.7381558418273926e+00</stageThreshold>
      <weakClassifiers>
        <_>
          <internalNodes>
            0 -1 14 7.6534748077392578e-02</internalNodes>
          <leafValues>
            -7.7994012832641602e-01 3.0534350872039795e-01</leafValues></_>
        <_>
          <internalNodes>
            0 -1 0 4.2551946640014648e-01</internalNodes>
          <leafValues>
            -7.1246314048767090e-01 3.2686492800712585e-01</leafValues></_>
        <_>
          <internalNodes>
            0 -1 34 4.1058327769860625e-04</internalNodes>
          <leafValues>
            2.5917682051658630e-01 -9.1495728492736816e-01</leafValues></_>
        <_>
          <internalNodes>
            0 -1 51 6.4192770514637232e-04</internalNodes>
          <leafValues>
            2.1890804171562195e-01 -9.6453684568405151e-01</leafValues></_>
        <_>
          <internalNodes>
            0 -1 18 2.8619403019547462e-03</internalNodes>
          <leafValues>
            -7.8635072708129883e-01 2.6152706146240234e-01</leafValues></_>
        <_>
          <internalNodes>
            0 -1 49 -3.8842152571305633e-04</internalNodes>
          <leafValues>
            -1. 1.8876959383487701e-01</leafValues></_></weakClassifiers></_>
    <!-- stage 8 -->
    <_>
      <maxWeakCount>5</maxWeakCount>
      <stageThreshold>-9.9924337863922119e-01</stageThreshold>
      <weakClassifiers>
        <_>
          <internalNodes>
            0 -1 7 -7.2689447551965714e-03</internalNodes>
          <leafValues>
            1.9133573770523071e-01 -7.5650840997695923e-01</leafValues></_>
        <_>
          <internalNodes>
            0 -1 61 -5.2581436466425657e-04</internalNodes>
          <leafValues>
            2.0132972300052643e-01 -8.0669796466827393e-01</leafValues></_>
        <_>
          <internalNodes>
            0 -1 11 8.2049556076526642e-03</internalNodes>
          <leafValues>
            -8.6290419101715088e-01 2.4346998333930969e-01</leafValues></_>
        <_>
          <internalNodes>
            0 -1 8 -1.5282569453120232e-02</internalNodes>
          <leafValues>
            2.3999020457267761e-01 -8.8281577825546265e-01</leafValues></_>
        <_>
          <internalNodes>
            0 -1 13 2.5861460017040372e-05</internalNodes>
          <leafValues>
            -8.8610446453094482e-01 1.9528107345104218e-01</leafValues></_></weakClassifiers></_>
    <!-- stage 9 -->
    <_>
      <maxWeakCount>5</maxWeakCount>
      <stageThreshold>-1.5883569717407227e+00</stageThreshold>
      <weakClassifiers>
        <_>
          <internalNodes>
            0 -1 59 8.8339429348707199e-03</internalNodes>
          <leafValues>
            -6.8232959508895874e-01 4.2693409323692322e-01</leafValues></_>
        <_>
          <internalNodes>
            0 -1 53 6.0587853658944368e-04</internalNodes>
          <leafValues>
            2.9974517226219177e-01 -7.3045194149017334e-01</leafValues></_>
        <_>
          <internalNodes>
            0 -1 22 1.4632683014497161e-03</internalNodes>
          <leafValues>
            3.2886233925819397e-01 -6.1200195550918579e-01</leafValues></_>
        <_>
          <internalNodes>
            0 -1 6 9.4128254568204284e-04</internalNodes>
          <leafValues>
            -9.6208691596984863e-01 2.1336799860000610e-01</leafValues></_>
        <_>
          <internalNodes>
            0 -1 44 3.3296737819910049e-03</internalNodes>
          <leafValues>
            -8.9430296421051025e-01 2.2305856645107269e-01</leafValues></_></weakClassifiers></_>
    <!-- stage 10 -->
    <_>
      <maxWeakCount>5</maxWeakCount>
      <stageThreshold>-9.1687917709350586e-01</stageThreshold>
      <weakClassifiers>
        <_>
          <internalNodes>
            0 -1 7 -7.2005977854132652e-03</internalNodes>
          <leafValues>
            1.5384615957736969e-01 -7.5310558080673218e-01</leafValues></_>
        <_>
          <internalNodes>
            0 -1 32 3.8851757999509573e-03</internalNodes>
          <leafValues>
            -6.2420827150344849e-01 3.1612911820411682e-01</leafValues></_>
        <_>
          <internalNodes>
            0 -1 41 1.1494685895740986e-03</internalNodes>
          <leafValues>
            2.4191373586654663e-01 -8.9096820354461670e-01</leafValues></_>
        <_>
          <internalNodes>
            0 -1 33 2.3255703854374588e-04</internalNodes>
          <leafValues>
            2.9425776004791260e-01 -7.4810218811035156e-01</leafValues></_>
        <_>
          <internalNodes>
            0 -1 35 6.5753527451306581e-04</internalNodes>
          <leafValues>
            1.5019339323043823e-01 -1.</leafValues></_></weakClassifiers></_>
    <!-- stage 11 -->
    <_>
      <maxWeakCount>5</maxWeakCount>
      <stageThreshold>-1.1297105550765991e+00</stageThreshold>
      <weakClassifiers>
        <_>
          <internalNodes>
            0 -1 43 -1.8567800521850586e-02</internalNodes>
          <leafValues>
            2.2784809768199921e-01 -7.1428573131561279e-01</leafValues></_>
        <_>
          <internalNodes>
            0 -1 40 6.4690917497500777e-05</internalNodes>
          <leafValues>
            1.4596691727638245e-01 -8.5525876283645630e-01</leafValues></_>
        <_>
          <internalNodes>
            0 -1 5 7.3809102177619934e-03</internalNodes>
          <leafValues>
            -7.1365261077880859e-01 2.2697657346725464e-01</leafValues></_>
        <_>
          <internalNodes>
            0 -1 20 5.0534870475530624e-02</internalNodes>
          <leafValues>
            -9.6477872133255005e-01 1.7026671767234802e-01</leafValues></_>
        <_>
          <internalNodes>
            0 -1 15 3.1566137075424194e-01</internalNodes>
          <leafValues>
            1.6171412169933319e-01 -9.5863503217697144e-01</leafValues></_></weakClassifiers></_>
    <!-- stage 12 -->
    <_>
      <maxWeakCount>7</maxWeakCount>
      <stageThreshold>-1.1759359836578369e+00</stageThreshold>
      <weakClassifiers>
        <_>
          <internalNodes>
            0 -1 25 6.4953928813338280e-03</internalNodes>
          <leafValues>
            -7.2769230604171753e-01 1.1428571492433548e-01</leafValues></_>
        <_>
          <internalNodes>
            0 -1 21 1.1352251749485731e-03</internalNodes>
          <leafValues>
            2.6545527577400208e-01 -6.8795704841613770e-01</leafValues></_>
        <_>
          <internalNodes>
            0 -1 19 2.1219691916485317e-05</internalNodes>
          <leafValues>
            -5.9580326080322266e-01 3.6647135019302368e-01</leafValues></_>
        <_>
          <internalNodes>
            0 -1 54 -6.9894094485789537e-04</internalNodes>
          <leafValues>
            -8.4298390150070190e-01 2.7261990308761597e-01</leafValues></_>
        <_>
          <internalNodes>
            0 -1 48 8.9536029845476151e-03</internalNodes>
          <leafValues>
            -6.5842556953430176e-01 4.1406217217445374e-01</leafValues></_>
        <_>
          <internalNodes>
            0 -1 58 4.9973335990216583e-05</internalNodes>
          <leafValues>
            -6.3625597953796387e-01 3.1638488173484802e-01</leafValues></_>
        <_>
          <internalNodes>
            0 -1 46 -1.0835513239726424e-04</internalNodes>
          <leafValues>
            -8.6721593141555786e-01 2.1551713347434998e-01</leafValues></_></weakClassifiers></_>
    <!-- stage 13 -->
    <_>
      <maxWeakCount>5</maxWeakCount>
      <stageThreshold>-1.4289929866790771e+00</stageThreshold>
      <weakClassifiers>
        <_>
          <internalNodes>
            0 -1 31 -1.3091762084513903e-03</internalNodes>
          <leafValues>
            4.6440678834915161e-01 -6.5111821889877319e-01</leafValues></_>
        <_>
          <internalNodes>
            0 -1 52 3.5220722202211618e-04</internalNodes>
          <leafValues>
            3.5093790292739868e-01 -6.5754377841949463e-01</leafValues></_>
        <_>
          <internalNodes>
            0 -1 62 4.1602535929996520e-05</internalNodes>
          <leafValues>
            -6.5469610691070557e-01 3.3773332834243774e-01</leafValues></_>
        <_>
          <internalNodes>
            0 -1 50 3.1468272209167480e-04</internalNodes>
          <leafValues>
            2.2318129241466522e-01 -8.9784431457519531e-01</leafValues></_>
        <_>
          <internalNodes>
            0 -1 56 1.0925551578111481e-05</internalNodes>
          <leafValues>
            -6.9729787111282349e-01 3.2061502337455750e-01</leafValues></_></weakClassifiers></_>
    <!-- stage 14 -->
    <_>
      <maxWeakCount>5</maxWeakCount>
      <stageThreshold>-1.0869489908218384e+00</stageThreshold>
      <weakClassifiers>
        <_>
          <internalNodes>
            0 -1 39 -5.3782400209456682e-04</internalNodes>
          <leafValues>
            8.5915493965148926e-01 -6.4663022756576538e-01</leafValues></_>
        <_>
          <internalNodes>
            0 -1 57 -3.0882636201567948e-04</internalNodes>
          <leafValues>
            3.4654366970062256e-01 -7.7193456888198853e-01</leafValues></_>
        <_>
          <internalNodes>
            0 -1 12 4.7206088900566101e-02</internalNodes>
          <leafValues>
            -3.5880762338638306e-01 8.7048453092575073e-01</leafValues></_>
        <_>
          <internalNodes>
            0 -1 30 -4.6891972422599792e-02</internalNodes>
          <leafValues>
            3.3413669466972351e-01 -9.0545791387557983e-01</leafValues></_>
        <_>
          <internalNodes>
            0 -1 28 -2.4824298452585936e-04</internalNodes>
          <leafValues>
            -7.3222398757934570e-01 3.5628673434257507e-01</leafValues></_></weakClassifiers></_></stages>
  <features>
    <_>
      <rects>
        <_>
          0 0 24 23 -1.</_>
        <_>
          8 0 8 23 3.</_></rects>
      <tilted>0</tilted></_>
    <_>
      <rects>
        <_>
          0 0 24 24 -1.</_>
        <_>
          8 0 8 24 3.</_></rects>
      <tilted>0</tilted></_>
    <_>
      <rects>
        <_>
          0 2 2 20 -1.</_>
        <_>
          1 2 1 20 2.</_></rects>
      <tilted>0</tilted></_>
    <_>
      <rects>
        <_>
          0 5 4 16 -1.</_>
        <_>
          2 5 2 16 2.</_></rects>
      <tilted>0</tilted></_>
    <_>
      <rects>
        <_>
          0 6 8 18 -1.</_>
        <_>
          4 6 4 18 2.</_></rects>
      <tilted>0</tilted></_>
    <_>
      <rects>
        <_>
          0 7 2 13 -1.</_>
        <_>
          1 7 1 13 2.</_></rects>
      <tilted>0</tilted></_>
    <_>
      <rects>
        <_>
          0 8 7 9 -1.</_>
        <_>
          0 11 7 3 3.</_></rects>
      <tilted>0</tilted></_>
    <_>
      <rects>
        <_>
          0 14 2 10 -1.</_>
        <_>
          0 14 1 5 2.</_>
        <_>
          1 19 1 5 2.</_></rects>
      <tilted>0</tilted></_>
    <_>
      <rects>
        <_>
          0 15 22 6 -1.</_>
        <_>
          0 18 22 3 2.</_></rects>
      <tilted>0</tilted></_>
    <_>
      <rects>
        <_>
          1 0 23 24 -1.</_>
        <_>
          1 8 23 8 3.</_></rects>
      <tilted>0</tilted></_>
    <_>
      <rects>
        <_>
          1 2 4 21 -1.</_>
        <_>
          1 9 4 7 3.</_></rects>
      <tilted>0</tilted></_>
    <_>
      <rects>
        <_>
          1 4 6 15 -1.</_>
        <_>
          3 4 2 15 3.</_></rects>
      <tilted>0</tilted></_>
    <_>
      <rects>
        <_>
          1 8 2 15 -1.</_>
        <_>
          1 13 2 5 3.</_></rects>
      <tilted>0</tilted></_>
    <_>
      <rects>
        <_>
          1 11 22 3 -1.</_>
        <_>
          12 11 11 3 2.</_></rects>
      <tilted>0</tilted></_>
    <_>
      <rects>
        <_>
          1 22 21 2 -1.</_>
        <_>
          8 22 7 2 3.</_></rects>
      <tilted>0</tilted></_>
    <_>
      <rects>
        <_>
          2 0 21 22 -1.</_>
        <_>
          9 0 7 22 3.</_></rects>
      <tilted>0</tilted></_>
    <_>
      <rects>
        <_>
          2 0 14 24 -1.</_>
        <_>
          9 0 7 24 2.</_></rects>
      <tilted>0</tilted></_>
    <_>
      <rects>
        <_>
          2 1 8 8 -1.</_>
        <_>
          2 1 4 4 2.</_>
        <_>
          6 5 4 4 2.</_></rects>
      <tilted>0</tilted></_>
    <_>
      <rects>
        <_>
          2 4 21 2 -1.</_>
        <_>
          2 5 21 1 2.</_></rects>
      <tilted>0</tilted></_>
    <_>
      <rects>
        <_>
          2 16 2 6 -1.</_>
        <_>
          2 16 1 3 2.</_>
        <_>
          3 19 1 3 2.</_></rects>
      <tilted>0</tilted></_>
    <_>
      <rects>
        <_>
          3 0 15 24 -1.</_>
        <_>
          8 0 5 24 3.</_></rects>
      <tilted>0</tilted></_>
    <_>
      <rects>
        <_>
          3 12 6 6 -1.</_>
        <_>
          6 12 3 6 2.</_></rects>
      <tilted>0</tilted></_>
    <_>
      <rects>
        <_>
          3 15 8 3 -1.</_>
        <_>
          7 15 4 3 2.</_></rects>
      <tilted>0</tilted></_>
    <_>
      <rects>
        <_>
          3 20 9 3 -1.</_>
        <_>
          3 21 9 1 3.</_></rects>
      <tilted>0</tilted></_>
    <_>
      <rects>
        <_>
          4 0 17 4 -1.</_>
        <_>
          4 2 17 2 2.</_></rects>
      <tilted>0</tilted></_>
    <_>
      <rects>
        <_>
          5 0 14 3 -1.</_>
        <_>
          5 1 14 1 3.</_></rects>
      <tilted>0</tilted></_>
    <_>
      <rects>
        <_>
          5 0 19 2 -1.</_>
        <_>
          5 1 19 1 2.</_></rects>
      <tilted>0</tilted></_>
    <_>
      <rects>
        <_>
          5 12 15 1 -1.</_>
        <_>
          10 12 5 1 3.</_></rects>
      <tilted>0</tilted></_>
    <_>
      <rects>
        <_>
          5 18 1 2 -1.</_>
        <_>
          5 19 1 1 2.</_></rects>
      <tilted>0</tilted></_>
    <_>
      <rects>
        <_>
          5 22 19 2 -1.</_>
        <_>
          5 23 19 1 2.</_></rects>
      <tilted>0</tilted></_>
    <_>
      <rects>
        <_>
          6 6 17 18 -1.</_>
        <_>
          6 15 17 9 2.</_></rects>
      <tilted>0</tilted></_>
    <_>
      <rects>
        <_>
          6 16 12 6 -1.</_>
        <_>
          10 16 4 6 3.</_></rects>
      <tilted>0</tilted></_>
    <_>
      <rects>
        <_>
          6 21 16 3 -1.</_>
        <_>
          6 22 16 1 3.</_></rects>
      <tilted>0</tilted></_>
    <_>
      <rects>
        <_>
          7 5 4 1 -1.</_>
        <_>
          9 5 2 1 2.</_></rects>
      <tilted>0</tilted></_>
    <_>
      <rects>
        <_>
          7 7 1 9 -1.</_>
        <_>
          7 10 1 3 3.</_></rects>
      <tilted>0</tilted></_>
    <_>
      <rects>
        <_>
          7 7 3 9 -1.</_>
        <_>
          8 7 1 9 3.</_></rects>
      <tilted>0</tilted></_>
    <_>
      <rects>
        <_>
          7 21 15 3 -1.</_>
        <_>
          12 21 5 3 3.</_></rects>
      <tilted>0</tilted></_>
    <_>
      <rects>
        <_>
          8 6 2 12 -1.</_>
        <_>
          8 10 2 4 3.</_></rects>
      <tilted>0</tilted></_>
    <_>
      <rects>
        <_>
          9 1 11 6 -1.</_>
        <_>
          9 3 11 2 3.</_></rects>
      <tilted>0</tilted></_>
    <_>
      <rects>
        <_>
          10 5 6 4 -1.</_>
        <_>
          12 5 2 4 3.</_></rects>
      <tilted>0</tilted></_>
    <_>
      <rects>
        <_>
          10 5 3 2 -1.</_>
        <_>
          10 6 3 1 2.</_></rects>
      <tilted>0</tilted></_>
    <_>
      <rects>
        <_>
          10 8 6 9 -1.</_>
        <_>
          10 11 6 3 3.</_></rects>
      <tilted>0</tilted></_>
    <_>
      <rects>
        <_>
          10 16 14 8 -1.</_>
        <_>
          10 16 7 4 2.</_>
        <_>
          17 20 7 4 2.</_></rects>
      <tilted>0</tilted></_>
    <_>
      <rects>
        <_>
          10 20 12 4 -1.</_>
        <_>
          10 20 6 2 2.</_>
        <_>
          16 22 6 2 2.</_></rects>
      <tilted>0</tilted></_>
    <_>
      <rects>
        <_>
          11 2 12 9 -1.</_>
        <_>
          11 5 12 3 3.</_></rects>
      <tilted>0</tilted></_>
    <_>
      <rects>
        <_>
          11 11 1 9 -1.</_>
        <_>
          11 14 1 3 3.</_></rects>
      <tilted>0</tilted></_>
    <_>
      <rects>
        <_>
          11 16 1 4 -1.</_>
        <_>
          11 18 1 2 2.</_></rects>
      <tilted>0</tilted></_>
    <_>
      <rects>
        <_>
          12 2 12 8 -1.</_>
        <_>
          12 2 6 4 2.</_>
        <_>
          18 6 6 4 2.</_></rects>
      <tilted>0</tilted></_>
    <_>
      <rects>
        <_>
          12 3 9 20 -1.</_>
        <_>
          15 3 3 20 3.</_></rects>
      <tilted>0</tilted></_>
    <_>
      <rects>
        <_>
          13 10 4 7 -1.</_>
        <_>
          15 10 2 7 2.</_></rects>
      <tilted>0</tilted></_>
    <_>
      <rects>
        <_>
          13 11 6 2 -1.</_>
        <_>
          15 11 2 2 3.</_></rects>
      <tilted>0</tilted></_>
    <_>
      <rects>
        <_>
          13 11 6 3 -1.</_>
        <_>
          15 11 2 3 3.</_></rects>
      <tilted>0</tilted></_>
    <_>
      <rects>
        <_>
          14 2 1 22 -1.</_>
        <_>
          14 13 1 11 2.</_></rects>
      <tilted>0</tilted></_>
    <_>
      <rects>
        <_>
          15 7 2 15 -1.</_>
        <_>
          15 12 2 5 3.</_></rects>
      <tilted>0</tilted></_>
    <_>
      <rects>
        <_>
          16 11 4 8 -1.</_>
        <_>
          18 11 2 8 2.</_></rects>
      <tilted>0</tilted></_>
    <_>
      <rects>
        <_>
          17 1 6 12 -1.</_>
        <_>
          17 1 3 6 2.</_>
        <_>
          20 7 3 6 2.</_></rects>
      <tilted>0</tilted></_>
    <_>
      <rects>
        <_>
          17 18 6 2 -1.</_>
        <_>
          19 18 2 2 3.</_></rects>
      <tilted>0</tilted></_>
    <_>
      <rects>
        <_>
          18 0 2 10 -1.</_>
        <_>
          19 0 1 10 2.</_></rects>
      <tilted>0</tilted></_>
    <_>
      <rects>
        <_>
          19 7 3 9 -1.</_>
        <_>
          20 7 1 9 3.</_></rects>
      <tilted>0</tilted></_>
    <_>
      <rects>
        <_>
          19 20 4 4 -1.</_>
        <_>
          19 20 2 2 2.</_>
        <_>
          21 22 2 2 2.</_></rects>
      <tilted>0</tilted></_>
    <_>
      <rects>
        <_>
          20 3 3 21 -1.</_>
        <_>
          20 10 3 7 3.</_></rects>
      <tilted>0</tilted></_>
    <_>
      <rects>
        <_>
          21 7 2 16 -1.</_>
        <_>
          22 7 1 16 2.</_></rects>
      <tilted>0</tilted></_>
    <_>
      <rects>
        <_>
          21 14 3 5 -1.</_>
        <_>
          22 14 1 5 3.</_></rects>
      <tilted>0</tilted></_>
    <_>
      <rects>
        <_>
          22 14 2 8 -1.</_>
        <_>
          23 14 1 8 2.</_></rects>
      <tilted>0</tilted></_></features></cascade>
</opencv_storage>
